digraph Tree {
node [shape=box, style="filled", color="black"] ;
0 [label="relationship <= 0.5\ngini = 0.365\nsamples = 26048\nvalue = [19783, 6265]\nclass = <=50", fillcolor="#eda978"] ;
1 [label="education <= 6.5\ngini = 0.494\nsamples = 10610\nvalue = [5877, 4733]\nclass = <=50", fillcolor="#fae6d8"] ;
0 -> 1 [labeldistance=2.5, labelangle=45, headlabel="True"] ;
2 [label="education <= 2.5\ngini = 0.217\nsamples = 1193\nvalue = [1045, 148]\nclass = <=50", fillcolor="#e99355"] ;
1 -> 2 ;
3 [label="age <= 35.0\ngini = 0.272\nsamples = 591\nvalue = [495, 96]\nclass = <=50", fillcolor="#ea995f"] ;
2 -> 3 ;
4 [label="native-country <= 25.5\ngini = 0.166\nsamples = 230\nvalue = [209, 21]\nclass = <=50", fillcolor="#e88e4d"] ;
3 -> 4 ;
5 [label="gini = 0.0\nsamples = 22\nvalue = [22, 0]\nclass = <=50", fillcolor="#e58139"] ;
4 -> 5 ;
6 [label="native-country <= 30.5\ngini = 0.182\nsamples = 208\nvalue = [187, 21]\nclass = <=50", fillcolor="#e88f4f"] ;
4 -> 6 ;
7 [label="gini = 0.0\nsamples = 2\nvalue = [0, 2]\nclass = >50", fillcolor="#399de5"] ;
6 -> 7 ;
8 [label="workclass <= 4.0\ngini = 0.167\nsamples = 206\nvalue = [187, 19]\nclass = <=50", fillcolor="#e88e4d"] ;
6 -> 8 ;
9 [label="education <= 1.5\ngini = 0.152\nsamples = 181\nvalue = [166, 15]\nclass = <=50", fillcolor="#e78c4b"] ;
8 -> 9 ;
10 [label="occupation <= 12.5\ngini = 0.132\nsamples = 155\nvalue = [144, 11]\nclass = <=50", fillcolor="#e78b48"] ;
9 -> 10 ;
11 [label="occupation <= 11.5\ngini = 0.154\nsamples = 131\nvalue = [120, 11]\nclass = <=50", fillcolor="#e78d4b"] ;
10 -> 11 ;
12 [label="occupation <= 6.5\ngini = 0.143\nsamples = 129\nvalue = [119, 10]\nclass = <=50", fillcolor="#e78c4a"] ;
11 -> 12 ;
13 [label="race <= 2.5\ngini = 0.161\nsamples = 113\nvalue = [103, 10]\nclass = <=50", fillcolor="#e88d4c"] ;
12 -> 13 ;
14 [label="race <= 1.5\ngini = 0.375\nsamples = 4\nvalue = [3, 1]\nclass = <=50", fillcolor="#eeab7b"] ;
13 -> 14 ;
15 [label="gini = 0.0\nsamples = 2\nvalue = [2, 0]\nclass = <=50", fillcolor="#e58139"] ;
14 -> 15 ;
16 [label="occupation <= 5.5\ngini = 0.5\nsamples = 2\nvalue = [1, 1]\nclass = <=50", fillcolor="#ffffff"] ;
14 -> 16 ;
17 [label="gini = 0.0\nsamples = 1\nvalue = [0, 1]\nclass = >50", fillcolor="#399de5"] ;
16 -> 17 ;
18 [label="gini = 0.0\nsamples = 1\nvalue = [1, 0]\nclass = <=50", fillcolor="#e58139"] ;
16 -> 18 ;
19 [label="education <= 0.5\ngini = 0.152\nsamples = 109\nvalue = [100, 9]\nclass = <=50", fillcolor="#e78c4b"] ;
13 -> 19 ;
20 [label="occupation <= 2.5\ngini = 0.115\nsamples = 49\nvalue = [46, 3]\nclass = <=50", fillcolor="#e78946"] ;
19 -> 20 ;
21 [label="age <= 25.0\ngini = 0.191\nsamples = 28\nvalue = [25, 3]\nclass = <=50", fillcolor="#e89051"] ;
20 -> 21 ;
22 [label="gini = 0.0\nsamples = 7\nvalue = [7, 0]\nclass = <=50", fillcolor="#e58139"] ;
21 -> 22 ;
23 [label="workclass <= 2.0\ngini = 0.245\nsamples = 21\nvalue = [18, 3]\nclass = <=50", fillcolor="#e9965a"] ;
21 -> 23 ;
24 [label="gini = 0.0\nsamples = 1\nvalue = [1, 0]\nclass = <=50", fillcolor="#e58139"] ;
23 -> 24 ;
25 [label="gini = 0.255\nsamples = 20\nvalue = [17, 3]\nclass = <=50", fillcolor="#ea975c"] ;
23 -> 25 ;
26 [label="gini = 0.0\nsamples = 21\nvalue = [21, 0]\nclass = <=50", fillcolor="#e58139"] ;
20 -> 26 ;
27 [label="age <= 25.0\ngini = 0.18\nsamples = 60\nvalue = [54, 6]\nclass = <=50", fillcolor="#e88f4f"] ;
19 -> 27 ;
28 [label="occupation <= 2.5\ngini = 0.278\nsamples = 24\nvalue = [20, 4]\nclass = <=50", fillcolor="#ea9a61"] ;
27 -> 28 ;
29 [label="age <= 15.0\ngini = 0.165\nsamples = 11\nvalue = [10, 1]\nclass = <=50", fillcolor="#e88e4d"] ;
28 -> 29 ;
30 [label="gini = 0.0\nsamples = 2\nvalue = [2, 0]\nclass = <=50", fillcolor="#e58139"] ;
29 -> 30 ;
31 [label="gini = 0.198\nsamples = 9\nvalue = [8, 1]\nclass = <=50", fillcolor="#e89152"] ;
29 -> 31 ;
32 [label="occupation <= 3.5\ngini = 0.355\nsamples = 13\nvalue = [10, 3]\nclass = <=50", fillcolor="#eda774"] ;
28 -> 32 ;
33 [label="gini = 0.0\nsamples = 1\nvalue = [0, 1]\nclass = >50", fillcolor="#399de5"] ;
32 -> 33 ;
34 [label="native-country <= 35.0\ngini = 0.278\nsamples = 12\nvalue = [10, 2]\nclass = <=50", fillcolor="#ea9a61"] ;
32 -> 34 ;
35 [label="gini = 0.0\nsamples = 1\nvalue = [1, 0]\nclass = <=50", fillcolor="#e58139"] ;
34 -> 35 ;
36 [label="occupation <= 4.5\ngini = 0.298\nsamples = 11\nvalue = [9, 2]\nclass = <=50", fillcolor="#eb9d65"] ;
34 -> 36 ;
37 [label="gini = 0.0\nsamples = 1\nvalue = [1, 0]\nclass = <=50", fillcolor="#e58139"] ;
36 -> 37 ;
38 [label="race <= 3.5\ngini = 0.32\nsamples = 10\nvalue = [8, 2]\nclass = <=50", fillcolor="#eca06a"] ;
36 -> 38 ;
39 [label="gini = 0.0\nsamples = 1\nvalue = [1, 0]\nclass = <=50", fillcolor="#e58139"] ;
38 -> 39 ;
40 [label="occupation <= 5.5\ngini = 0.346\nsamples = 9\nvalue = [7, 2]\nclass = <=50", fillcolor="#eca572"] ;
38 -> 40 ;
41 [label="gini = 0.444\nsamples = 3\nvalue = [2, 1]\nclass = <=50", fillcolor="#f2c09c"] ;
40 -> 41 ;
42 [label="gini = 0.278\nsamples = 6\nvalue = [5, 1]\nclass = <=50", fillcolor="#ea9a61"] ;
40 -> 42 ;
43 [label="occupation <= 5.5\ngini = 0.105\nsamples = 36\nvalue = [34, 2]\nclass = <=50", fillcolor="#e78845"] ;
27 -> 43 ;
44 [label="occupation <= 2.5\ngini = 0.064\nsamples = 30\nvalue = [29, 1]\nclass = <=50", fillcolor="#e68540"] ;
43 -> 44 ;
45 [label="occupation <= 1.0\ngini = 0.08\nsamples = 24\nvalue = [23, 1]\nclass = <=50", fillcolor="#e68642"] ;
44 -> 45 ;
46 [label="gini = 0.0\nsamples = 1\nvalue = [1, 0]\nclass = <=50", fillcolor="#e58139"] ;
45 -> 46 ;
47 [label="gini = 0.083\nsamples = 23\nvalue = [22, 1]\nclass = <=50", fillcolor="#e68742"] ;
45 -> 47 ;
48 [label="gini = 0.0\nsamples = 6\nvalue = [6, 0]\nclass = <=50", fillcolor="#e58139"] ;
44 -> 48 ;
49 [label="gini = 0.278\nsamples = 6\nvalue = [5, 1]\nclass = <=50", fillcolor="#ea9a61"] ;
43 -> 49 ;
50 [label="gini = 0.0\nsamples = 16\nvalue = [16, 0]\nclass = <=50", fillcolor="#e58139"] ;
12 -> 50 ;
51 [label="age <= 25.0\ngini = 0.5\nsamples = 2\nvalue = [1, 1]\nclass = <=50", fillcolor="#ffffff"] ;
11 -> 51 ;
52 [label="gini = 0.0\nsamples = 1\nvalue = [1, 0]\nclass = <=50", fillcolor="#e58139"] ;
51 -> 52 ;
53 [label="gini = 0.0\nsamples = 1\nvalue = [0, 1]\nclass = >50", fillcolor="#399de5"] ;
51 -> 53 ;
54 [label="gini = 0.0\nsamples = 24\nvalue = [24, 0]\nclass = <=50", fillcolor="#e58139"] ;
10 -> 54 ;
55 [label="occupation <= 10.5\ngini = 0.26\nsamples = 26\nvalue = [22, 4]\nclass = <=50", fillcolor="#ea985d"] ;
9 -> 55 ;
56 [label="occupation <= 3.5\ngini = 0.18\nsamples = 20\nvalue = [18, 2]\nclass = <=50", fillcolor="#e88f4f"] ;
55 -> 56 ;
57 [label="race <= 3.5\ngini = 0.278\nsamples = 12\nvalue = [10, 2]\nclass = <=50", fillcolor="#ea9a61"] ;
56 -> 57 ;
58 [label="gini = 0.0\nsamples = 1\nvalue = [1, 0]\nclass = <=50", fillcolor="#e58139"] ;
57 -> 58 ;
59 [label="workclass <= 1.5\ngini = 0.298\nsamples = 11\nvalue = [9, 2]\nclass = <=50", fillcolor="#eb9d65"] ;
57 -> 59 ;
60 [label="gini = 0.0\nsamples = 1\nvalue = [1, 0]\nclass = <=50", fillcolor="#e58139"] ;
59 -> 60 ;
61 [label="age <= 25.0\ngini = 0.32\nsamples = 10\nvalue = [8, 2]\nclass = <=50", fillcolor="#eca06a"] ;
59 -> 61 ;
62 [label="gini = 0.32\nsamples = 5\nvalue = [4, 1]\nclass = <=50", fillcolor="#eca06a"] ;
61 -> 62 ;
63 [label="gini = 0.32\nsamples = 5\nvalue = [4, 1]\nclass = <=50", fillcolor="#eca06a"] ;
61 -> 63 ;
64 [label="gini = 0.0\nsamples = 8\nvalue = [8, 0]\nclass = <=50", fillcolor="#e58139"] ;
56 -> 64 ;
65 [label="occupation <= 11.5\ngini = 0.444\nsamples = 6\nvalue = [4, 2]\nclass = <=50", fillcolor="#f2c09c"] ;
55 -> 65 ;
66 [label="gini = 0.0\nsamples = 1\nvalue = [0, 1]\nclass = >50", fillcolor="#399de5"] ;
65 -> 66 ;
67 [label="age <= 25.0\ngini = 0.32\nsamples = 5\nvalue = [4, 1]\nclass = <=50", fillcolor="#eca06a"] ;
65 -> 67 ;
68 [label="gini = 0.5\nsamples = 2\nvalue = [1, 1]\nclass = <=50", fillcolor="#ffffff"] ;
67 -> 68 ;
69 [label="gini = 0.0\nsamples = 3\nvalue = [3, 0]\nclass = <=50", fillcolor="#e58139"] ;
67 -> 69 ;
70 [label="workclass <= 5.5\ngini = 0.269\nsamples = 25\nvalue = [21, 4]\nclass = <=50", fillcolor="#ea995f"] ;
8 -> 70 ;
71 [label="age <= 25.0\ngini = 0.346\nsamples = 18\nvalue = [14, 4]\nclass = <=50", fillcolor="#eca572"] ;
70 -> 71 ;
72 [label="occupation <= 8.0\ngini = 0.48\nsamples = 5\nvalue = [3, 2]\nclass = <=50", fillcolor="#f6d5bd"] ;
71 -> 72 ;
73 [label="education <= 0.5\ngini = 0.375\nsamples = 4\nvalue = [3, 1]\nclass = <=50", fillcolor="#eeab7b"] ;
72 -> 73 ;
74 [label="gini = 0.5\nsamples = 2\nvalue = [1, 1]\nclass = <=50", fillcolor="#ffffff"] ;
73 -> 74 ;
75 [label="gini = 0.0\nsamples = 2\nvalue = [2, 0]\nclass = <=50", fillcolor="#e58139"] ;
73 -> 75 ;
76 [label="gini = 0.0\nsamples = 1\nvalue = [0, 1]\nclass = >50", fillcolor="#399de5"] ;
72 -> 76 ;
77 [label="occupation <= 12.0\ngini = 0.26\nsamples = 13\nvalue = [11, 2]\nclass = <=50", fillcolor="#ea985d"] ;
71 -> 77 ;
78 [label="occupation <= 7.5\ngini = 0.346\nsamples = 9\nvalue = [7, 2]\nclass = <=50", fillcolor="#eca572"] ;
77 -> 78 ;
79 [label="occupation <= 2.5\ngini = 0.219\nsamples = 8\nvalue = [7, 1]\nclass = <=50", fillcolor="#e99355"] ;
78 -> 79 ;
80 [label="gini = 0.0\nsamples = 3\nvalue = [3, 0]\nclass = <=50", fillcolor="#e58139"] ;
79 -> 80 ;
81 [label="education <= 0.5\ngini = 0.32\nsamples = 5\nvalue = [4, 1]\nclass = <=50", fillcolor="#eca06a"] ;
79 -> 81 ;
82 [label="gini = 0.0\nsamples = 3\nvalue = [3, 0]\nclass = <=50", fillcolor="#e58139"] ;
81 -> 82 ;
83 [label="gini = 0.5\nsamples = 2\nvalue = [1, 1]\nclass = <=50", fillcolor="#ffffff"] ;
81 -> 83 ;
84 [label="gini = 0.0\nsamples = 1\nvalue = [0, 1]\nclass = >50", fillcolor="#399de5"] ;
78 -> 84 ;
85 [label="gini = 0.0\nsamples = 4\nvalue = [4, 0]\nclass = <=50", fillcolor="#e58139"] ;
77 -> 85 ;
86 [label="gini = 0.0\nsamples = 7\nvalue = [7, 0]\nclass = <=50", fillcolor="#e58139"] ;
70 -> 86 ;
87 [label="education <= 1.5\ngini = 0.329\nsamples = 361\nvalue = [286, 75]\nclass = <=50", fillcolor="#eca26d"] ;
3 -> 87 ;
88 [label="workclass <= 7.0\ngini = 0.304\nsamples = 310\nvalue = [252, 58]\nclass = <=50", fillcolor="#eb9e67"] ;
87 -> 88 ;
89 [label="age <= 65.0\ngini = 0.319\nsamples = 286\nvalue = [229, 57]\nclass = <=50", fillcolor="#eba06a"] ;
88 -> 89 ;
90 [label="workclass <= 2.0\ngini = 0.328\nsamples = 271\nvalue = [215, 56]\nclass = <=50", fillcolor="#eca26d"] ;
89 -> 90 ;
91 [label="race <= 3.0\ngini = 0.188\nsamples = 19\nvalue = [17, 2]\nclass = <=50", fillcolor="#e89050"] ;
90 -> 91 ;
92 [label="occupation <= 4.5\ngini = 0.5\nsamples = 2\nvalue = [1, 1]\nclass = <=50", fillcolor="#ffffff"] ;
91 -> 92 ;
93 [label="gini = 0.0\nsamples = 1\nvalue = [0, 1]\nclass = >50", fillcolor="#399de5"] ;
92 -> 93 ;
94 [label="gini = 0.0\nsamples = 1\nvalue = [1, 0]\nclass = <=50", fillcolor="#e58139"] ;
92 -> 94 ;
95 [label="age <= 45.0\ngini = 0.111\nsamples = 17\nvalue = [16, 1]\nclass = <=50", fillcolor="#e78945"] ;
91 -> 95 ;
96 [label="occupation <= 9.0\ngini = 0.375\nsamples = 4\nvalue = [3, 1]\nclass = <=50", fillcolor="#eeab7b"] ;
95 -> 96 ;
97 [label="gini = 0.0\nsamples = 1\nvalue = [0, 1]\nclass = >50", fillcolor="#399de5"] ;
96 -> 97 ;
98 [label="gini = 0.0\nsamples = 3\nvalue = [3, 0]\nclass = <=50", fillcolor="#e58139"] ;
96 -> 98 ;
99 [label="gini = 0.0\nsamples = 13\nvalue = [13, 0]\nclass = <=50", fillcolor="#e58139"] ;
95 -> 99 ;
100 [label="occupation <= 12.0\ngini = 0.337\nsamples = 252\nvalue = [198, 54]\nclass = <=50", fillcolor="#eca36f"] ;
90 -> 100 ;
101 [label="occupation <= 3.5\ngini = 0.319\nsamples = 206\nvalue = [165, 41]\nclass = <=50", fillcolor="#eba06a"] ;
100 -> 101 ;
102 [label="occupation <= 2.5\ngini = 0.37\nsamples = 94\nvalue = [71, 23]\nclass = <=50", fillcolor="#edaa79"] ;
101 -> 102 ;
103 [label="workclass <= 3.5\ngini = 0.326\nsamples = 78\nvalue = [62, 16]\nclass = <=50", fillcolor="#eca26c"] ;
102 -> 103 ;
104 [label="age <= 55.0\ngini = 0.375\nsamples = 60\nvalue = [45, 15]\nclass = <=50", fillcolor="#eeab7b"] ;
103 -> 104 ;
105 [label="age <= 45.0\ngini = 0.406\nsamples = 53\nvalue = [38, 15]\nclass = <=50", fillcolor="#efb387"] ;
104 -> 105 ;
106 [label="education <= 0.5\ngini = 0.298\nsamples = 22\nvalue = [18, 4]\nclass = <=50", fillcolor="#eb9d65"] ;
105 -> 106 ;
107 [label="occupation <= 1.0\ngini = 0.142\nsamples = 13\nvalue = [12, 1]\nclass = <=50", fillcolor="#e78c49"] ;
106 -> 107 ;
108 [label="gini = 0.0\nsamples = 2\nvalue = [2, 0]\nclass = <=50", fillcolor="#e58139"] ;
107 -> 108 ;
109 [label="native-country <= 39.5\ngini = 0.165\nsamples = 11\nvalue = [10, 1]\nclass = <=50", fillcolor="#e88e4d"] ;
107 -> 109 ;
110 [label="race <= 3.0\ngini = 0.18\nsamples = 10\nvalue = [9, 1]\nclass = <=50", fillcolor="#e88f4f"] ;
109 -> 110 ;
111 [label="gini = 0.0\nsamples = 1\nvalue = [1, 0]\nclass = <=50", fillcolor="#e58139"] ;
110 -> 111 ;
112 [label="gini = 0.198\nsamples = 9\nvalue = [8, 1]\nclass = <=50", fillcolor="#e89152"] ;
110 -> 112 ;
113 [label="gini = 0.0\nsamples = 1\nvalue = [1, 0]\nclass = <=50", fillcolor="#e58139"] ;
109 -> 113 ;
114 [label="native-country <= 21.5\ngini = 0.444\nsamples = 9\nvalue = [6, 3]\nclass = <=50", fillcolor="#f2c09c"] ;
106 -> 114 ;
115 [label="gini = 0.0\nsamples = 2\nvalue = [2, 0]\nclass = <=50", fillcolor="#e58139"] ;
114 -> 115 ;
116 [label="occupation <= 1.0\ngini = 0.49\nsamples = 7\nvalue = [4, 3]\nclass = <=50", fillcolor="#f8e0ce"] ;
114 -> 116 ;
117 [label="gini = 0.5\nsamples = 2\nvalue = [1, 1]\nclass = <=50", fillcolor="#ffffff"] ;
116 -> 117 ;
118 [label="gini = 0.48\nsamples = 5\nvalue = [3, 2]\nclass = <=50", fillcolor="#f6d5bd"] ;
116 -> 118 ;
119 [label="education <= 0.5\ngini = 0.458\nsamples = 31\nvalue = [20, 11]\nclass = <=50", fillcolor="#f3c6a6"] ;
105 -> 119 ;
120 [label="occupation <= 1.0\ngini = 0.498\nsamples = 17\nvalue = [8, 9]\nclass = >50", fillcolor="#e9f4fc"] ;
119 -> 120 ;
121 [label="gini = 0.0\nsamples = 1\nvalue = [1, 0]\nclass = <=50", fillcolor="#e58139"] ;
120 -> 121 ;
122 [label="race <= 3.0\ngini = 0.492\nsamples = 16\nvalue = [7, 9]\nclass = >50", fillcolor="#d3e9f9"] ;
120 -> 122 ;
123 [label="gini = 0.5\nsamples = 2\nvalue = [1, 1]\nclass = <=50", fillcolor="#ffffff"] ;
122 -> 123 ;
124 [label="gini = 0.49\nsamples = 14\nvalue = [6, 8]\nclass = >50", fillcolor="#cee6f8"] ;
122 -> 124 ;
125 [label="race <= 3.0\ngini = 0.245\nsamples = 14\nvalue = [12, 2]\nclass = <=50", fillcolor="#e9965a"] ;
119 -> 125 ;
126 [label="gini = 0.0\nsamples = 1\nvalue = [1, 0]\nclass = <=50", fillcolor="#e58139"] ;
125 -> 126 ;
127 [label="occupation <= 1.0\ngini = 0.26\nsamples = 13\nvalue = [11, 2]\nclass = <=50", fillcolor="#ea985d"] ;
125 -> 127 ;
128 [label="gini = 0.0\nsamples = 1\nvalue = [1, 0]\nclass = <=50", fillcolor="#e58139"] ;
127 -> 128 ;
129 [label="gini = 0.278\nsamples = 12\nvalue = [10, 2]\nclass = <=50", fillcolor="#ea9a61"] ;
127 -> 129 ;
130 [label="gini = 0.0\nsamples = 7\nvalue = [7, 0]\nclass = <=50", fillcolor="#e58139"] ;
104 -> 130 ;
131 [label="education <= 0.5\ngini = 0.105\nsamples = 18\nvalue = [17, 1]\nclass = <=50", fillcolor="#e78845"] ;
103 -> 131 ;
132 [label="age <= 55.0\ngini = 0.133\nsamples = 14\nvalue = [13, 1]\nclass = <=50", fillcolor="#e78b48"] ;
131 -> 132 ;
133 [label="age <= 45.0\ngini = 0.165\nsamples = 11\nvalue = [10, 1]\nclass = <=50", fillcolor="#e88e4d"] ;
132 -> 133 ;
134 [label="gini = 0.0\nsamples = 2\nvalue = [2, 0]\nclass = <=50", fillcolor="#e58139"] ;
133 -> 134 ;
135 [label="race <= 2.0\ngini = 0.198\nsamples = 9\nvalue = [8, 1]\nclass = <=50", fillcolor="#e89152"] ;
133 -> 135 ;
136 [label="gini = 0.0\nsamples = 1\nvalue = [1, 0]\nclass = <=50", fillcolor="#e58139"] ;
135 -> 136 ;
137 [label="gini = 0.219\nsamples = 8\nvalue = [7, 1]\nclass = <=50", fillcolor="#e99355"] ;
135 -> 137 ;
138 [label="gini = 0.0\nsamples = 3\nvalue = [3, 0]\nclass = <=50", fillcolor="#e58139"] ;
132 -> 138 ;
139 [label="gini = 0.0\nsamples = 4\nvalue = [4, 0]\nclass = <=50", fillcolor="#e58139"] ;
131 -> 139 ;
140 [label="age <= 55.0\ngini = 0.492\nsamples = 16\nvalue = [9, 7]\nclass = <=50", fillcolor="#f9e3d3"] ;
102 -> 140 ;
141 [label="workclass <= 3.5\ngini = 0.444\nsamples = 12\nvalue = [8, 4]\nclass = <=50", fillcolor="#f2c09c"] ;
140 -> 141 ;
142 [label="age <= 45.0\ngini = 0.494\nsamples = 9\nvalue = [5, 4]\nclass = <=50", fillcolor="#fae6d7"] ;
141 -> 142 ;
143 [label="education <= 0.5\ngini = 0.5\nsamples = 6\nvalue = [3, 3]\nclass = <=50", fillcolor="#ffffff"] ;
142 -> 143 ;
144 [label="gini = 0.48\nsamples = 5\nvalue = [2, 3]\nclass = >50", fillcolor="#bddef6"] ;
143 -> 144 ;
145 [label="gini = 0.0\nsamples = 1\nvalue = [1, 0]\nclass = <=50", fillcolor="#e58139"] ;
143 -> 145 ;
146 [label="education <= 0.5\ngini = 0.444\nsamples = 3\nvalue = [2, 1]\nclass = <=50", fillcolor="#f2c09c"] ;
142 -> 146 ;
147 [label="gini = 0.0\nsamples = 1\nvalue = [1, 0]\nclass = <=50", fillcolor="#e58139"] ;
146 -> 147 ;
148 [label="gini = 0.5\nsamples = 2\nvalue = [1, 1]\nclass = <=50", fillcolor="#ffffff"] ;
146 -> 148 ;
149 [label="gini = 0.0\nsamples = 3\nvalue = [3, 0]\nclass = <=50", fillcolor="#e58139"] ;
141 -> 149 ;
150 [label="native-country <= 39.5\ngini = 0.375\nsamples = 4\nvalue = [1, 3]\nclass = >50", fillcolor="#7bbeee"] ;
140 -> 150 ;
151 [label="workclass <= 4.5\ngini = 0.444\nsamples = 3\nvalue = [1, 2]\nclass = >50", fillcolor="#9ccef2"] ;
150 -> 151 ;
152 [label="gini = 0.0\nsamples = 1\nvalue = [0, 1]\nclass = >50", fillcolor="#399de5"] ;
151 -> 152 ;
153 [label="workclass <= 5.5\ngini = 0.5\nsamples = 2\nvalue = [1, 1]\nclass = <=50", fillcolor="#ffffff"] ;
151 -> 153 ;
154 [label="gini = 0.0\nsamples = 1\nvalue = [1, 0]\nclass = <=50", fillcolor="#e58139"] ;
153 -> 154 ;
155 [label="gini = 0.0\nsamples = 1\nvalue = [0, 1]\nclass = >50", fillcolor="#399de5"] ;
153 -> 155 ;
156 [label="gini = 0.0\nsamples = 1\nvalue = [0, 1]\nclass = >50", fillcolor="#399de5"] ;
150 -> 156 ;
157 [label="native-country <= 4.5\ngini = 0.27\nsamples = 112\nvalue = [94, 18]\nclass = <=50", fillcolor="#ea995f"] ;
101 -> 157 ;
158 [label="gini = 0.0\nsamples = 1\nvalue = [0, 1]\nclass = >50", fillcolor="#399de5"] ;
157 -> 158 ;
159 [label="age <= 45.0\ngini = 0.259\nsamples = 111\nvalue = [94, 17]\nclass = <=50", fillcolor="#ea985d"] ;
157 -> 159 ;
160 [label="workclass <= 3.5\ngini = 0.363\nsamples = 42\nvalue = [32, 10]\nclass = <=50", fillcolor="#eda877"] ;
159 -> 160 ;
161 [label="occupation <= 4.5\ngini = 0.389\nsamples = 34\nvalue = [25, 9]\nclass = <=50", fillcolor="#eeae80"] ;
160 -> 161 ;
162 [label="gini = 0.0\nsamples = 3\nvalue = [3, 0]\nclass = <=50", fillcolor="#e58139"] ;
161 -> 162 ;
163 [label="occupation <= 8.5\ngini = 0.412\nsamples = 31\nvalue = [22, 9]\nclass = <=50", fillcolor="#f0b58a"] ;
161 -> 163 ;
164 [label="occupation <= 5.5\ngini = 0.435\nsamples = 25\nvalue = [17, 8]\nclass = <=50", fillcolor="#f1bc96"] ;
163 -> 164 ;
165 [label="education <= 0.5\ngini = 0.375\nsamples = 8\nvalue = [6, 2]\nclass = <=50", fillcolor="#eeab7b"] ;
164 -> 165 ;
166 [label="gini = 0.0\nsamples = 4\nvalue = [4, 0]\nclass = <=50", fillcolor="#e58139"] ;
165 -> 166 ;
167 [label="gini = 0.5\nsamples = 4\nvalue = [2, 2]\nclass = <=50", fillcolor="#ffffff"] ;
165 -> 167 ;
168 [label="education <= 0.5\ngini = 0.457\nsamples = 17\nvalue = [11, 6]\nclass = <=50", fillcolor="#f3c6a5"] ;
164 -> 168 ;
169 [label="race <= 3.0\ngini = 0.5\nsamples = 10\nvalue = [5, 5]\nclass = <=50", fillcolor="#ffffff"] ;
168 -> 169 ;
170 [label="gini = 0.5\nsamples = 2\nvalue = [1, 1]\nclass = <=50", fillcolor="#ffffff"] ;
169 -> 170 ;
171 [label="gini = 0.5\nsamples = 8\nvalue = [4, 4]\nclass = <=50", fillcolor="#ffffff"] ;
169 -> 171 ;
172 [label="race <= 3.0\ngini = 0.245\nsamples = 7\nvalue = [6, 1]\nclass = <=50", fillcolor="#e9965a"] ;
168 -> 172 ;
173 [label="gini = 0.5\nsamples = 2\nvalue = [1, 1]\nclass = <=50", fillcolor="#ffffff"] ;
172 -> 173 ;
174 [label="gini = 0.0\nsamples = 5\nvalue = [5, 0]\nclass = <=50", fillcolor="#e58139"] ;
172 -> 174 ;
175 [label="education <= 0.5\ngini = 0.278\nsamples = 6\nvalue = [5, 1]\nclass = <=50", fillcolor="#ea9a61"] ;
163 -> 175 ;
176 [label="gini = 0.0\nsamples = 3\nvalue = [3, 0]\nclass = <=50", fillcolor="#e58139"] ;
175 -> 176 ;
177 [label="occupation <= 10.5\ngini = 0.444\nsamples = 3\nvalue = [2, 1]\nclass = <=50", fillcolor="#f2c09c"] ;
175 -> 177 ;
178 [label="gini = 0.0\nsamples = 1\nvalue = [1, 0]\nclass = <=50", fillcolor="#e58139"] ;
177 -> 178 ;
179 [label="gini = 0.5\nsamples = 2\nvalue = [1, 1]\nclass = <=50", fillcolor="#ffffff"] ;
177 -> 179 ;
180 [label="occupation <= 4.5\ngini = 0.219\nsamples = 8\nvalue = [7, 1]\nclass = <=50", fillcolor="#e99355"] ;
160 -> 180 ;
181 [label="education <= 0.5\ngini = 0.32\nsamples = 5\nvalue = [4, 1]\nclass = <=50", fillcolor="#eca06a"] ;
180 -> 181 ;
182 [label="gini = 0.0\nsamples = 1\nvalue = [1, 0]\nclass = <=50", fillcolor="#e58139"] ;
181 -> 182 ;
183 [label="workclass <= 5.5\ngini = 0.375\nsamples = 4\nvalue = [3, 1]\nclass = <=50", fillcolor="#eeab7b"] ;
181 -> 183 ;
184 [label="gini = 0.444\nsamples = 3\nvalue = [2, 1]\nclass = <=50", fillcolor="#f2c09c"] ;
183 -> 184 ;
185 [label="gini = 0.0\nsamples = 1\nvalue = [1, 0]\nclass = <=50", fillcolor="#e58139"] ;
183 -> 185 ;
186 [label="gini = 0.0\nsamples = 3\nvalue = [3, 0]\nclass = <=50", fillcolor="#e58139"] ;
180 -> 186 ;
187 [label="occupation <= 8.0\ngini = 0.182\nsamples = 69\nvalue = [62, 7]\nclass = <=50", fillcolor="#e88f4f"] ;
159 -> 187 ;
188 [label="occupation <= 5.5\ngini = 0.109\nsamples = 52\nvalue = [49, 3]\nclass = <=50", fillcolor="#e78945"] ;
187 -> 188 ;
189 [label="race <= 3.0\ngini = 0.208\nsamples = 17\nvalue = [15, 2]\nclass = <=50", fillcolor="#e89253"] ;
188 -> 189 ;
190 [label="gini = 0.0\nsamples = 2\nvalue = [2, 0]\nclass = <=50", fillcolor="#e58139"] ;
189 -> 190 ;
191 [label="education <= 0.5\ngini = 0.231\nsamples = 15\nvalue = [13, 2]\nclass = <=50", fillcolor="#e99457"] ;
189 -> 191 ;
192 [label="age <= 55.0\ngini = 0.18\nsamples = 10\nvalue = [9, 1]\nclass = <=50", fillcolor="#e88f4f"] ;
191 -> 192 ;
193 [label="gini = 0.0\nsamples = 6\nvalue = [6, 0]\nclass = <=50", fillcolor="#e58139"] ;
192 -> 193 ;
194 [label="occupation <= 4.5\ngini = 0.375\nsamples = 4\nvalue = [3, 1]\nclass = <=50", fillcolor="#eeab7b"] ;
192 -> 194 ;
195 [label="gini = 0.0\nsamples = 3\nvalue = [3, 0]\nclass = <=50", fillcolor="#e58139"] ;
194 -> 195 ;
196 [label="gini = 0.0\nsamples = 1\nvalue = [0, 1]\nclass = >50", fillcolor="#399de5"] ;
194 -> 196 ;
197 [label="workclass <= 4.0\ngini = 0.32\nsamples = 5\nvalue = [4, 1]\nclass = <=50", fillcolor="#eca06a"] ;
191 -> 197 ;
198 [label="gini = 0.0\nsamples = 3\nvalue = [3, 0]\nclass = <=50", fillcolor="#e58139"] ;
197 -> 198 ;
199 [label="age <= 55.0\ngini = 0.5\nsamples = 2\nvalue = [1, 1]\nclass = <=50", fillcolor="#ffffff"] ;
197 -> 199 ;
200 [label="gini = 0.0\nsamples = 1\nvalue = [0, 1]\nclass = >50", fillcolor="#399de5"] ;
199 -> 200 ;
201 [label="gini = 0.0\nsamples = 1\nvalue = [1, 0]\nclass = <=50", fillcolor="#e58139"] ;
199 -> 201 ;
202 [label="age <= 55.0\ngini = 0.056\nsamples = 35\nvalue = [34, 1]\nclass = <=50", fillcolor="#e6853f"] ;
188 -> 202 ;
203 [label="gini = 0.0\nsamples = 25\nvalue = [25, 0]\nclass = <=50", fillcolor="#e58139"] ;
202 -> 203 ;
204 [label="education <= 0.5\ngini = 0.18\nsamples = 10\nvalue = [9, 1]\nclass = <=50", fillcolor="#e88f4f"] ;
202 -> 204 ;
205 [label="gini = 0.0\nsamples = 6\nvalue = [6, 0]\nclass = <=50", fillcolor="#e58139"] ;
204 -> 205 ;
206 [label="workclass <= 4.0\ngini = 0.375\nsamples = 4\nvalue = [3, 1]\nclass = <=50", fillcolor="#eeab7b"] ;
204 -> 206 ;
207 [label="gini = 0.444\nsamples = 3\nvalue = [2, 1]\nclass = <=50", fillcolor="#f2c09c"] ;
206 -> 207 ;
208 [label="gini = 0.0\nsamples = 1\nvalue = [1, 0]\nclass = <=50", fillcolor="#e58139"] ;
206 -> 208 ;
209 [label="workclass <= 4.5\ngini = 0.36\nsamples = 17\nvalue = [13, 4]\nclass = <=50", fillcolor="#eda876"] ;
187 -> 209 ;
210 [label="education <= 0.5\ngini = 0.26\nsamples = 13\nvalue = [11, 2]\nclass = <=50", fillcolor="#ea985d"] ;
209 -> 210 ;
211 [label="gini = 0.0\nsamples = 7\nvalue = [7, 0]\nclass = <=50", fillcolor="#e58139"] ;
210 -> 211 ;
212 [label="race <= 3.0\ngini = 0.444\nsamples = 6\nvalue = [4, 2]\nclass = <=50", fillcolor="#f2c09c"] ;
210 -> 212 ;
213 [label="gini = 0.0\nsamples = 1\nvalue = [1, 0]\nclass = <=50", fillcolor="#e58139"] ;
212 -> 213 ;
214 [label="age <= 55.0\ngini = 0.48\nsamples = 5\nvalue = [3, 2]\nclass = <=50", fillcolor="#f6d5bd"] ;
212 -> 214 ;
215 [label="gini = 0.5\nsamples = 2\nvalue = [1, 1]\nclass = <=50", fillcolor="#ffffff"] ;
214 -> 215 ;
216 [label="gini = 0.444\nsamples = 3\nvalue = [2, 1]\nclass = <=50", fillcolor="#f2c09c"] ;
214 -> 216 ;
217 [label="age <= 55.0\ngini = 0.5\nsamples = 4\nvalue = [2, 2]\nclass = <=50", fillcolor="#ffffff"] ;
209 -> 217 ;
218 [label="education <= 0.5\ngini = 0.444\nsamples = 3\nvalue = [2, 1]\nclass = <=50", fillcolor="#f2c09c"] ;
217 -> 218 ;
219 [label="gini = 0.5\nsamples = 2\nvalue = [1, 1]\nclass = <=50", fillcolor="#ffffff"] ;
218 -> 219 ;
220 [label="gini = 0.0\nsamples = 1\nvalue = [1, 0]\nclass = <=50", fillcolor="#e58139"] ;
218 -> 220 ;
221 [label="gini = 0.0\nsamples = 1\nvalue = [0, 1]\nclass = >50", fillcolor="#399de5"] ;
217 -> 221 ;
222 [label="education <= 0.5\ngini = 0.405\nsamples = 46\nvalue = [33, 13]\nclass = <=50", fillcolor="#efb387"] ;
100 -> 222 ;
223 [label="workclass <= 5.5\ngini = 0.464\nsamples = 30\nvalue = [19, 11]\nclass = <=50", fillcolor="#f4caac"] ;
222 -> 223 ;
224 [label="workclass <= 4.0\ngini = 0.452\nsamples = 29\nvalue = [19, 10]\nclass = <=50", fillcolor="#f3c3a1"] ;
223 -> 224 ;
225 [label="age <= 55.0\ngini = 0.466\nsamples = 27\nvalue = [17, 10]\nclass = <=50", fillcolor="#f4cbad"] ;
224 -> 225 ;
226 [label="native-country <= 35.0\ngini = 0.483\nsamples = 22\nvalue = [13, 9]\nclass = <=50", fillcolor="#f7d8c2"] ;
225 -> 226 ;
227 [label="gini = 0.0\nsamples = 1\nvalue = [1, 0]\nclass = <=50", fillcolor="#e58139"] ;
226 -> 227 ;
228 [label="native-country <= 39.0\ngini = 0.49\nsamples = 21\nvalue = [12, 9]\nclass = <=50", fillcolor="#f8e0ce"] ;
226 -> 228 ;
229 [label="age <= 45.0\ngini = 0.495\nsamples = 20\nvalue = [11, 9]\nclass = <=50", fillcolor="#fae8db"] ;
228 -> 229 ;
230 [label="race <= 3.0\ngini = 0.5\nsamples = 8\nvalue = [4, 4]\nclass = <=50", fillcolor="#ffffff"] ;
229 -> 230 ;
231 [label="gini = 0.0\nsamples = 2\nvalue = [0, 2]\nclass = >50", fillcolor="#399de5"] ;
230 -> 231 ;
232 [label="gini = 0.444\nsamples = 6\nvalue = [4, 2]\nclass = <=50", fillcolor="#f2c09c"] ;
230 -> 232 ;
233 [label="race <= 3.0\ngini = 0.486\nsamples = 12\nvalue = [7, 5]\nclass = <=50", fillcolor="#f8dbc6"] ;
229 -> 233 ;
234 [label="gini = 0.0\nsamples = 2\nvalue = [2, 0]\nclass = <=50", fillcolor="#e58139"] ;
233 -> 234 ;
235 [label="gini = 0.5\nsamples = 10\nvalue = [5, 5]\nclass = <=50", fillcolor="#ffffff"] ;
233 -> 235 ;
236 [label="gini = 0.0\nsamples = 1\nvalue = [1, 0]\nclass = <=50", fillcolor="#e58139"] ;
228 -> 236 ;
237 [label="gini = 0.32\nsamples = 5\nvalue = [4, 1]\nclass = <=50", fillcolor="#eca06a"] ;
225 -> 237 ;
238 [label="gini = 0.0\nsamples = 2\nvalue = [2, 0]\nclass = <=50", fillcolor="#e58139"] ;
224 -> 238 ;
239 [label="gini = 0.0\nsamples = 1\nvalue = [0, 1]\nclass = >50", fillcolor="#399de5"] ;
223 -> 239 ;
240 [label="workclass <= 3.5\ngini = 0.219\nsamples = 16\nvalue = [14, 2]\nclass = <=50", fillcolor="#e99355"] ;
222 -> 240 ;
241 [label="age <= 45.0\ngini = 0.142\nsamples = 13\nvalue = [12, 1]\nclass = <=50", fillcolor="#e78c49"] ;
240 -> 241 ;
242 [label="race <= 3.0\ngini = 0.245\nsamples = 7\nvalue = [6, 1]\nclass = <=50", fillcolor="#e9965a"] ;
241 -> 242 ;
243 [label="gini = 0.0\nsamples = 2\nvalue = [2, 0]\nclass = <=50", fillcolor="#e58139"] ;
242 -> 243 ;
244 [label="gini = 0.32\nsamples = 5\nvalue = [4, 1]\nclass = <=50", fillcolor="#eca06a"] ;
242 -> 244 ;
245 [label="gini = 0.0\nsamples = 6\nvalue = [6, 0]\nclass = <=50", fillcolor="#e58139"] ;
241 -> 245 ;
246 [label="age <= 55.0\ngini = 0.444\nsamples = 3\nvalue = [2, 1]\nclass = <=50", fillcolor="#f2c09c"] ;
240 -> 246 ;
247 [label="gini = 0.0\nsamples = 2\nvalue = [2, 0]\nclass = <=50", fillcolor="#e58139"] ;
246 -> 247 ;
248 [label="gini = 0.0\nsamples = 1\nvalue = [0, 1]\nclass = >50", fillcolor="#399de5"] ;
246 -> 248 ;
249 [label="age <= 75.0\ngini = 0.124\nsamples = 15\nvalue = [14, 1]\nclass = <=50", fillcolor="#e78a47"] ;
89 -> 249 ;
250 [label="gini = 0.0\nsamples = 11\nvalue = [11, 0]\nclass = <=50", fillcolor="#e58139"] ;
249 -> 250 ;
251 [label="occupation <= 3.5\ngini = 0.375\nsamples = 4\nvalue = [3, 1]\nclass = <=50", fillcolor="#eeab7b"] ;
249 -> 251 ;
252 [label="gini = 0.0\nsamples = 3\nvalue = [3, 0]\nclass = <=50", fillcolor="#e58139"] ;
251 -> 252 ;
253 [label="gini = 0.0\nsamples = 1\nvalue = [0, 1]\nclass = >50", fillcolor="#399de5"] ;
251 -> 253 ;
254 [label="education <= 0.5\ngini = 0.08\nsamples = 24\nvalue = [23, 1]\nclass = <=50", fillcolor="#e68642"] ;
88 -> 254 ;
255 [label="age <= 65.0\ngini = 0.198\nsamples = 9\nvalue = [8, 1]\nclass = <=50", fillcolor="#e89152"] ;
254 -> 255 ;
256 [label="age <= 55.0\ngini = 0.278\nsamples = 6\nvalue = [5, 1]\nclass = <=50", fillcolor="#ea9a61"] ;
255 -> 256 ;
257 [label="gini = 0.0\nsamples = 2\nvalue = [2, 0]\nclass = <=50", fillcolor="#e58139"] ;
256 -> 257 ;
258 [label="gini = 0.375\nsamples = 4\nvalue = [3, 1]\nclass = <=50", fillcolor="#eeab7b"] ;
256 -> 258 ;
259 [label="gini = 0.0\nsamples = 3\nvalue = [3, 0]\nclass = <=50", fillcolor="#e58139"] ;
255 -> 259 ;
260 [label="gini = 0.0\nsamples = 15\nvalue = [15, 0]\nclass = <=50", fillcolor="#e58139"] ;
254 -> 260 ;
261 [label="occupation <= 4.5\ngini = 0.444\nsamples = 51\nvalue = [34, 17]\nclass = <=50", fillcolor="#f2c09c"] ;
87 -> 261 ;
262 [label="native-country <= 40.0\ngini = 0.337\nsamples = 28\nvalue = [22, 6]\nclass = <=50", fillcolor="#eca36f"] ;
261 -> 262 ;
263 [label="workclass <= 4.5\ngini = 0.269\nsamples = 25\nvalue = [21, 4]\nclass = <=50", fillcolor="#ea995f"] ;
262 -> 263 ;
264 [label="age <= 45.0\ngini = 0.172\nsamples = 21\nvalue = [19, 2]\nclass = <=50", fillcolor="#e88e4e"] ;
263 -> 264 ;
265 [label="occupation <= 1.0\ngini = 0.346\nsamples = 9\nvalue = [7, 2]\nclass = <=50", fillcolor="#eca572"] ;
264 -> 265 ;
266 [label="gini = 0.0\nsamples = 3\nvalue = [3, 0]\nclass = <=50", fillcolor="#e58139"] ;
265 -> 266 ;
267 [label="workclass <= 2.0\ngini = 0.444\nsamples = 6\nvalue = [4, 2]\nclass = <=50", fillcolor="#f2c09c"] ;
265 -> 267 ;
268 [label="gini = 0.0\nsamples = 1\nvalue = [1, 0]\nclass = <=50", fillcolor="#e58139"] ;
267 -> 268 ;
269 [label="occupation <= 2.5\ngini = 0.48\nsamples = 5\nvalue = [3, 2]\nclass = <=50", fillcolor="#f6d5bd"] ;
267 -> 269 ;
270 [label="gini = 0.5\nsamples = 4\nvalue = [2, 2]\nclass = <=50", fillcolor="#ffffff"] ;
269 -> 270 ;
271 [label="gini = 0.0\nsamples = 1\nvalue = [1, 0]\nclass = <=50", fillcolor="#e58139"] ;
269 -> 271 ;
272 [label="gini = 0.0\nsamples = 12\nvalue = [12, 0]\nclass = <=50", fillcolor="#e58139"] ;
264 -> 272 ;
273 [label="workclass <= 5.5\ngini = 0.5\nsamples = 4\nvalue = [2, 2]\nclass = <=50", fillcolor="#ffffff"] ;
263 -> 273 ;
274 [label="age <= 45.0\ngini = 0.444\nsamples = 3\nvalue = [1, 2]\nclass = >50", fillcolor="#9ccef2"] ;
273 -> 274 ;
275 [label="gini = 0.0\nsamples = 1\nvalue = [1, 0]\nclass = <=50", fillcolor="#e58139"] ;
274 -> 275 ;
276 [label="gini = 0.0\nsamples = 2\nvalue = [0, 2]\nclass = >50", fillcolor="#399de5"] ;
274 -> 276 ;
277 [label="gini = 0.0\nsamples = 1\nvalue = [1, 0]\nclass = <=50", fillcolor="#e58139"] ;
273 -> 277 ;
278 [label="workclass <= 3.5\ngini = 0.444\nsamples = 3\nvalue = [1, 2]\nclass = >50", fillcolor="#9ccef2"] ;
262 -> 278 ;
279 [label="gini = 0.0\nsamples = 2\nvalue = [0, 2]\nclass = >50", fillcolor="#399de5"] ;
278 -> 279 ;
280 [label="gini = 0.0\nsamples = 1\nvalue = [1, 0]\nclass = <=50", fillcolor="#e58139"] ;
278 -> 280 ;
281 [label="occupation <= 12.0\ngini = 0.499\nsamples = 23\nvalue = [12, 11]\nclass = <=50", fillcolor="#fdf5ef"] ;
261 -> 281 ;
282 [label="occupation <= 8.0\ngini = 0.459\nsamples = 14\nvalue = [5, 9]\nclass = >50", fillcolor="#a7d3f3"] ;
281 -> 282 ;
283 [label="occupation <= 6.5\ngini = 0.494\nsamples = 9\nvalue = [5, 4]\nclass = <=50", fillcolor="#fae6d7"] ;
282 -> 283 ;
284 [label="workclass <= 2.0\ngini = 0.48\nsamples = 5\nvalue = [2, 3]\nclass = >50", fillcolor="#bddef6"] ;
283 -> 284 ;
285 [label="gini = 0.0\nsamples = 1\nvalue = [1, 0]\nclass = <=50", fillcolor="#e58139"] ;
284 -> 285 ;
286 [label="occupation <= 5.5\ngini = 0.375\nsamples = 4\nvalue = [1, 3]\nclass = >50", fillcolor="#7bbeee"] ;
284 -> 286 ;
287 [label="gini = 0.0\nsamples = 2\nvalue = [0, 2]\nclass = >50", fillcolor="#399de5"] ;
286 -> 287 ;
288 [label="age <= 45.0\ngini = 0.5\nsamples = 2\nvalue = [1, 1]\nclass = <=50", fillcolor="#ffffff"] ;
286 -> 288 ;
289 [label="gini = 0.0\nsamples = 1\nvalue = [1, 0]\nclass = <=50", fillcolor="#e58139"] ;
288 -> 289 ;
290 [label="gini = 0.0\nsamples = 1\nvalue = [0, 1]\nclass = >50", fillcolor="#399de5"] ;
288 -> 290 ;
291 [label="workclass <= 2.0\ngini = 0.375\nsamples = 4\nvalue = [3, 1]\nclass = <=50", fillcolor="#eeab7b"] ;
283 -> 291 ;
292 [label="gini = 0.0\nsamples = 1\nvalue = [0, 1]\nclass = >50", fillcolor="#399de5"] ;
291 -> 292 ;
293 [label="gini = 0.0\nsamples = 3\nvalue = [3, 0]\nclass = <=50", fillcolor="#e58139"] ;
291 -> 293 ;
294 [label="gini = 0.0\nsamples = 5\nvalue = [0, 5]\nclass = >50", fillcolor="#399de5"] ;
282 -> 294 ;
295 [label="age <= 45.0\ngini = 0.346\nsamples = 9\nvalue = [7, 2]\nclass = <=50", fillcolor="#eca572"] ;
281 -> 295 ;
296 [label="gini = 0.0\nsamples = 4\nvalue = [4, 0]\nclass = <=50", fillcolor="#e58139"] ;
295 -> 296 ;
297 [label="race <= 3.0\ngini = 0.48\nsamples = 5\nvalue = [3, 2]\nclass = <=50", fillcolor="#f6d5bd"] ;
295 -> 297 ;
298 [label="gini = 0.0\nsamples = 1\nvalue = [0, 1]\nclass = >50", fillcolor="#399de5"] ;
297 -> 298 ;
299 [label="occupation <= 13.5\ngini = 0.375\nsamples = 4\nvalue = [3, 1]\nclass = <=50", fillcolor="#eeab7b"] ;
297 -> 299 ;
300 [label="native-country <= 21.0\ngini = 0.444\nsamples = 3\nvalue = [2, 1]\nclass = <=50", fillcolor="#f2c09c"] ;
299 -> 300 ;
301 [label="gini = 0.0\nsamples = 1\nvalue = [1, 0]\nclass = <=50", fillcolor="#e58139"] ;
300 -> 301 ;
302 [label="gini = 0.5\nsamples = 2\nvalue = [1, 1]\nclass = <=50", fillcolor="#ffffff"] ;
300 -> 302 ;
303 [label="gini = 0.0\nsamples = 1\nvalue = [1, 0]\nclass = <=50", fillcolor="#e58139"] ;
299 -> 303 ;
304 [label="workclass <= 3.5\ngini = 0.158\nsamples = 602\nvalue = [550, 52]\nclass = <=50", fillcolor="#e78d4c"] ;
2 -> 304 ;
305 [label="native-country <= 40.0\ngini = 0.113\nsamples = 433\nvalue = [407, 26]\nclass = <=50", fillcolor="#e78946"] ;
304 -> 305 ;
306 [label="age <= 45.0\ngini = 0.103\nsamples = 422\nvalue = [399, 23]\nclass = <=50", fillcolor="#e68844"] ;
305 -> 306 ;
307 [label="workclass <= 0.5\ngini = 0.063\nsamples = 244\nvalue = [236, 8]\nclass = <=50", fillcolor="#e68540"] ;
306 -> 307 ;
308 [label="race <= 3.0\ngini = 0.444\nsamples = 3\nvalue = [2, 1]\nclass = <=50", fillcolor="#f2c09c"] ;
307 -> 308 ;
309 [label="gini = 0.0\nsamples = 1\nvalue = [1, 0]\nclass = <=50", fillcolor="#e58139"] ;
308 -> 309 ;
310 [label="occupation <= 9.0\ngini = 0.5\nsamples = 2\nvalue = [1, 1]\nclass = <=50", fillcolor="#ffffff"] ;
308 -> 310 ;
311 [label="gini = 0.0\nsamples = 1\nvalue = [0, 1]\nclass = >50", fillcolor="#399de5"] ;
310 -> 311 ;
312 [label="gini = 0.0\nsamples = 1\nvalue = [1, 0]\nclass = <=50", fillcolor="#e58139"] ;
310 -> 312 ;
313 [label="occupation <= 1.0\ngini = 0.056\nsamples = 241\nvalue = [234, 7]\nclass = <=50", fillcolor="#e6853f"] ;
307 -> 313 ;
314 [label="race <= 3.0\ngini = 0.375\nsamples = 4\nvalue = [3, 1]\nclass = <=50", fillcolor="#eeab7b"] ;
313 -> 314 ;
315 [label="gini = 0.0\nsamples = 1\nvalue = [0, 1]\nclass = >50", fillcolor="#399de5"] ;
314 -> 315 ;
316 [label="gini = 0.0\nsamples = 3\nvalue = [3, 0]\nclass = <=50", fillcolor="#e58139"] ;
314 -> 316 ;
317 [label="occupation <= 5.5\ngini = 0.049\nsamples = 237\nvalue = [231, 6]\nclass = <=50", fillcolor="#e6843e"] ;
313 -> 317 ;
318 [label="gini = 0.0\nsamples = 117\nvalue = [117, 0]\nclass = <=50", fillcolor="#e58139"] ;
317 -> 318 ;
319 [label="age <= 25.0\ngini = 0.095\nsamples = 120\nvalue = [114, 6]\nclass = <=50", fillcolor="#e68843"] ;
317 -> 319 ;
320 [label="gini = 0.0\nsamples = 25\nvalue = [25, 0]\nclass = <=50", fillcolor="#e58139"] ;
319 -> 320 ;
321 [label="occupation <= 6.5\ngini = 0.118\nsamples = 95\nvalue = [89, 6]\nclass = <=50", fillcolor="#e78946"] ;
319 -> 321 ;
322 [label="native-country <= 27.5\ngini = 0.18\nsamples = 40\nvalue = [36, 4]\nclass = <=50", fillcolor="#e88f4f"] ;
321 -> 322 ;
323 [label="native-country <= 23.0\ngini = 0.278\nsamples = 18\nvalue = [15, 3]\nclass = <=50", fillcolor="#ea9a61"] ;
322 -> 323 ;
324 [label="gini = 0.0\nsamples = 3\nvalue = [3, 0]\nclass = <=50", fillcolor="#e58139"] ;
323 -> 324 ;
325 [label="education <= 3.5\ngini = 0.32\nsamples = 15\nvalue = [12, 3]\nclass = <=50", fillcolor="#eca06a"] ;
323 -> 325 ;
326 [label="gini = 0.5\nsamples = 2\nvalue = [1, 1]\nclass = <=50", fillcolor="#ffffff"] ;
325 -> 326 ;
327 [label="education <= 4.5\ngini = 0.26\nsamples = 13\nvalue = [11, 2]\nclass = <=50", fillcolor="#ea985d"] ;
325 -> 327 ;
328 [label="age <= 35.0\ngini = 0.18\nsamples = 10\nvalue = [9, 1]\nclass = <=50", fillcolor="#e88f4f"] ;
327 -> 328 ;
329 [label="race <= 2.0\ngini = 0.32\nsamples = 5\nvalue = [4, 1]\nclass = <=50", fillcolor="#eca06a"] ;
328 -> 329 ;
330 [label="gini = 0.0\nsamples = 1\nvalue = [1, 0]\nclass = <=50", fillcolor="#e58139"] ;
329 -> 330 ;
331 [label="gini = 0.375\nsamples = 4\nvalue = [3, 1]\nclass = <=50", fillcolor="#eeab7b"] ;
329 -> 331 ;
332 [label="gini = 0.0\nsamples = 5\nvalue = [5, 0]\nclass = <=50", fillcolor="#e58139"] ;
328 -> 332 ;
333 [label="age <= 35.0\ngini = 0.444\nsamples = 3\nvalue = [2, 1]\nclass = <=50", fillcolor="#f2c09c"] ;
327 -> 333 ;
334 [label="gini = 0.0\nsamples = 2\nvalue = [2, 0]\nclass = <=50", fillcolor="#e58139"] ;
333 -> 334 ;
335 [label="gini = 0.0\nsamples = 1\nvalue = [0, 1]\nclass = >50", fillcolor="#399de5"] ;
333 -> 335 ;
336 [label="age <= 35.0\ngini = 0.087\nsamples = 22\nvalue = [21, 1]\nclass = <=50", fillcolor="#e68742"] ;
322 -> 336 ;
337 [label="education <= 5.5\ngini = 0.245\nsamples = 7\nvalue = [6, 1]\nclass = <=50", fillcolor="#e9965a"] ;
336 -> 337 ;
338 [label="gini = 0.0\nsamples = 4\nvalue = [4, 0]\nclass = <=50", fillcolor="#e58139"] ;
337 -> 338 ;
339 [label="gini = 0.444\nsamples = 3\nvalue = [2, 1]\nclass = <=50", fillcolor="#f2c09c"] ;
337 -> 339 ;
340 [label="gini = 0.0\nsamples = 15\nvalue = [15, 0]\nclass = <=50", fillcolor="#e58139"] ;
336 -> 340 ;
341 [label="age <= 35.0\ngini = 0.07\nsamples = 55\nvalue = [53, 2]\nclass = <=50", fillcolor="#e68640"] ;
321 -> 341 ;
342 [label="gini = 0.0\nsamples = 25\nvalue = [25, 0]\nclass = <=50", fillcolor="#e58139"] ;
341 -> 342 ;
343 [label="native-country <= 32.5\ngini = 0.124\nsamples = 30\nvalue = [28, 2]\nclass = <=50", fillcolor="#e78a47"] ;
341 -> 343 ;
344 [label="gini = 0.0\nsamples = 13\nvalue = [13, 0]\nclass = <=50", fillcolor="#e58139"] ;
343 -> 344 ;
345 [label="occupation <= 8.0\ngini = 0.208\nsamples = 17\nvalue = [15, 2]\nclass = <=50", fillcolor="#e89253"] ;
343 -> 345 ;
346 [label="education <= 5.5\ngini = 0.32\nsamples = 5\nvalue = [4, 1]\nclass = <=50", fillcolor="#eca06a"] ;
345 -> 346 ;
347 [label="gini = 0.0\nsamples = 2\nvalue = [2, 0]\nclass = <=50", fillcolor="#e58139"] ;
346 -> 347 ;
348 [label="gini = 0.444\nsamples = 3\nvalue = [2, 1]\nclass = <=50", fillcolor="#f2c09c"] ;
346 -> 348 ;
349 [label="education <= 5.5\ngini = 0.153\nsamples = 12\nvalue = [11, 1]\nclass = <=50", fillcolor="#e78c4b"] ;
345 -> 349 ;
350 [label="occupation <= 12.0\ngini = 0.198\nsamples = 9\nvalue = [8, 1]\nclass = <=50", fillcolor="#e89152"] ;
349 -> 350 ;
351 [label="gini = 0.0\nsamples = 2\nvalue = [2, 0]\nclass = <=50", fillcolor="#e58139"] ;
350 -> 351 ;
352 [label="workclass <= 2.0\ngini = 0.245\nsamples = 7\nvalue = [6, 1]\nclass = <=50", fillcolor="#e9965a"] ;
350 -> 352 ;
353 [label="gini = 0.0\nsamples = 1\nvalue = [1, 0]\nclass = <=50", fillcolor="#e58139"] ;
352 -> 353 ;
354 [label="education <= 4.5\ngini = 0.278\nsamples = 6\nvalue = [5, 1]\nclass = <=50", fillcolor="#ea9a61"] ;
352 -> 354 ;
355 [label="gini = 0.0\nsamples = 1\nvalue = [1, 0]\nclass = <=50", fillcolor="#e58139"] ;
354 -> 355 ;
356 [label="race <= 3.0\ngini = 0.32\nsamples = 5\nvalue = [4, 1]\nclass = <=50", fillcolor="#eca06a"] ;
354 -> 356 ;
357 [label="gini = 0.0\nsamples = 1\nvalue = [1, 0]\nclass = <=50", fillcolor="#e58139"] ;
356 -> 357 ;
358 [label="gini = 0.375\nsamples = 4\nvalue = [3, 1]\nclass = <=50", fillcolor="#eeab7b"] ;
356 -> 358 ;
359 [label="gini = 0.0\nsamples = 3\nvalue = [3, 0]\nclass = <=50", fillcolor="#e58139"] ;
349 -> 359 ;
360 [label="occupation <= 3.5\ngini = 0.154\nsamples = 178\nvalue = [163, 15]\nclass = <=50", fillcolor="#e78d4b"] ;
306 -> 360 ;
361 [label="education <= 3.5\ngini = 0.252\nsamples = 54\nvalue = [46, 8]\nclass = <=50", fillcolor="#ea975b"] ;
360 -> 361 ;
362 [label="native-country <= 19.0\ngini = 0.48\nsamples = 5\nvalue = [2, 3]\nclass = >50", fillcolor="#bddef6"] ;
361 -> 362 ;
363 [label="gini = 0.0\nsamples = 1\nvalue = [0, 1]\nclass = >50", fillcolor="#399de5"] ;
362 -> 363 ;
364 [label="occupation <= 2.5\ngini = 0.5\nsamples = 4\nvalue = [2, 2]\nclass = <=50", fillcolor="#ffffff"] ;
362 -> 364 ;
365 [label="age <= 55.0\ngini = 0.444\nsamples = 3\nvalue = [2, 1]\nclass = <=50", fillcolor="#f2c09c"] ;
364 -> 365 ;
366 [label="gini = 0.0\nsamples = 2\nvalue = [2, 0]\nclass = <=50", fillcolor="#e58139"] ;
365 -> 366 ;
367 [label="gini = 0.0\nsamples = 1\nvalue = [0, 1]\nclass = >50", fillcolor="#399de5"] ;
365 -> 367 ;
368 [label="gini = 0.0\nsamples = 1\nvalue = [0, 1]\nclass = >50", fillcolor="#399de5"] ;
364 -> 368 ;
369 [label="occupation <= 2.5\ngini = 0.183\nsamples = 49\nvalue = [44, 5]\nclass = <=50", fillcolor="#e88f50"] ;
361 -> 369 ;
370 [label="race <= 3.5\ngini = 0.127\nsamples = 44\nvalue = [41, 3]\nclass = <=50", fillcolor="#e78a47"] ;
369 -> 370 ;
371 [label="age <= 55.0\ngini = 0.48\nsamples = 5\nvalue = [3, 2]\nclass = <=50", fillcolor="#f6d5bd"] ;
370 -> 371 ;
372 [label="native-country <= 38.5\ngini = 0.444\nsamples = 3\nvalue = [1, 2]\nclass = >50", fillcolor="#9ccef2"] ;
371 -> 372 ;
373 [label="gini = 0.0\nsamples = 2\nvalue = [0, 2]\nclass = >50", fillcolor="#399de5"] ;
372 -> 373 ;
374 [label="gini = 0.0\nsamples = 1\nvalue = [1, 0]\nclass = <=50", fillcolor="#e58139"] ;
372 -> 374 ;
375 [label="gini = 0.0\nsamples = 2\nvalue = [2, 0]\nclass = <=50", fillcolor="#e58139"] ;
371 -> 375 ;
376 [label="native-country <= 30.5\ngini = 0.05\nsamples = 39\nvalue = [38, 1]\nclass = <=50", fillcolor="#e6843e"] ;
370 -> 376 ;
377 [label="native-country <= 27.5\ngini = 0.245\nsamples = 7\nvalue = [6, 1]\nclass = <=50", fillcolor="#e9965a"] ;
376 -> 377 ;
378 [label="gini = 0.0\nsamples = 6\nvalue = [6, 0]\nclass = <=50", fillcolor="#e58139"] ;
377 -> 378 ;
379 [label="gini = 0.0\nsamples = 1\nvalue = [0, 1]\nclass = >50", fillcolor="#399de5"] ;
377 -> 379 ;
380 [label="gini = 0.0\nsamples = 32\nvalue = [32, 0]\nclass = <=50", fillcolor="#e58139"] ;
376 -> 380 ;
381 [label="workclass <= 2.0\ngini = 0.48\nsamples = 5\nvalue = [3, 2]\nclass = <=50", fillcolor="#f6d5bd"] ;
369 -> 381 ;
382 [label="gini = 0.0\nsamples = 2\nvalue = [2, 0]\nclass = <=50", fillcolor="#e58139"] ;
381 -> 382 ;
383 [label="race <= 2.0\ngini = 0.444\nsamples = 3\nvalue = [1, 2]\nclass = >50", fillcolor="#9ccef2"] ;
381 -> 383 ;
384 [label="gini = 0.0\nsamples = 1\nvalue = [1, 0]\nclass = <=50", fillcolor="#e58139"] ;
383 -> 384 ;
385 [label="gini = 0.0\nsamples = 2\nvalue = [0, 2]\nclass = >50", fillcolor="#399de5"] ;
383 -> 385 ;
386 [label="occupation <= 10.5\ngini = 0.107\nsamples = 124\nvalue = [117, 7]\nclass = <=50", fillcolor="#e78945"] ;
360 -> 386 ;
387 [label="occupation <= 5.5\ngini = 0.046\nsamples = 85\nvalue = [83, 2]\nclass = <=50", fillcolor="#e6843e"] ;
386 -> 387 ;
388 [label="education <= 4.5\ngini = 0.147\nsamples = 25\nvalue = [23, 2]\nclass = <=50", fillcolor="#e78c4a"] ;
387 -> 388 ;
389 [label="gini = 0.0\nsamples = 8\nvalue = [8, 0]\nclass = <=50", fillcolor="#e58139"] ;
388 -> 389 ;
390 [label="race <= 3.0\ngini = 0.208\nsamples = 17\nvalue = [15, 2]\nclass = <=50", fillcolor="#e89253"] ;
388 -> 390 ;
391 [label="gini = 0.0\nsamples = 3\nvalue = [3, 0]\nclass = <=50", fillcolor="#e58139"] ;
390 -> 391 ;
392 [label="age <= 65.0\ngini = 0.245\nsamples = 14\nvalue = [12, 2]\nclass = <=50", fillcolor="#e9965a"] ;
390 -> 392 ;
393 [label="native-country <= 31.5\ngini = 0.298\nsamples = 11\nvalue = [9, 2]\nclass = <=50", fillcolor="#eb9d65"] ;
392 -> 393 ;
394 [label="gini = 0.0\nsamples = 1\nvalue = [1, 0]\nclass = <=50", fillcolor="#e58139"] ;
393 -> 394 ;
395 [label="age <= 55.0\ngini = 0.32\nsamples = 10\nvalue = [8, 2]\nclass = <=50", fillcolor="#eca06a"] ;
393 -> 395 ;
396 [label="occupation <= 4.5\ngini = 0.278\nsamples = 6\nvalue = [5, 1]\nclass = <=50", fillcolor="#ea9a61"] ;
395 -> 396 ;
397 [label="gini = 0.0\nsamples = 2\nvalue = [2, 0]\nclass = <=50", fillcolor="#e58139"] ;
396 -> 397 ;
398 [label="gini = 0.375\nsamples = 4\nvalue = [3, 1]\nclass = <=50", fillcolor="#eeab7b"] ;
396 -> 398 ;
399 [label="education <= 5.5\ngini = 0.375\nsamples = 4\nvalue = [3, 1]\nclass = <=50", fillcolor="#eeab7b"] ;
395 -> 399 ;
400 [label="occupation <= 4.5\ngini = 0.444\nsamples = 3\nvalue = [2, 1]\nclass = <=50", fillcolor="#f2c09c"] ;
399 -> 400 ;
401 [label="gini = 0.5\nsamples = 2\nvalue = [1, 1]\nclass = <=50", fillcolor="#ffffff"] ;
400 -> 401 ;
402 [label="gini = 0.0\nsamples = 1\nvalue = [1, 0]\nclass = <=50", fillcolor="#e58139"] ;
400 -> 402 ;
403 [label="gini = 0.0\nsamples = 1\nvalue = [1, 0]\nclass = <=50", fillcolor="#e58139"] ;
399 -> 403 ;
404 [label="gini = 0.0\nsamples = 3\nvalue = [3, 0]\nclass = <=50", fillcolor="#e58139"] ;
392 -> 404 ;
405 [label="gini = 0.0\nsamples = 60\nvalue = [60, 0]\nclass = <=50", fillcolor="#e58139"] ;
387 -> 405 ;
406 [label="race <= 3.5\ngini = 0.224\nsamples = 39\nvalue = [34, 5]\nclass = <=50", fillcolor="#e99456"] ;
386 -> 406 ;
407 [label="gini = 0.0\nsamples = 8\nvalue = [8, 0]\nclass = <=50", fillcolor="#e58139"] ;
406 -> 407 ;
408 [label="education <= 5.5\ngini = 0.271\nsamples = 31\nvalue = [26, 5]\nclass = <=50", fillcolor="#ea995f"] ;
406 -> 408 ;
409 [label="occupation <= 12.0\ngini = 0.32\nsamples = 25\nvalue = [20, 5]\nclass = <=50", fillcolor="#eca06a"] ;
408 -> 409 ;
410 [label="age <= 55.0\ngini = 0.5\nsamples = 4\nvalue = [2, 2]\nclass = <=50", fillcolor="#ffffff"] ;
409 -> 410 ;
411 [label="gini = 0.0\nsamples = 1\nvalue = [1, 0]\nclass = <=50", fillcolor="#e58139"] ;
410 -> 411 ;
412 [label="age <= 65.0\ngini = 0.444\nsamples = 3\nvalue = [1, 2]\nclass = >50", fillcolor="#9ccef2"] ;
410 -> 412 ;
413 [label="gini = 0.5\nsamples = 2\nvalue = [1, 1]\nclass = <=50", fillcolor="#ffffff"] ;
412 -> 413 ;
414 [label="gini = 0.0\nsamples = 1\nvalue = [0, 1]\nclass = >50", fillcolor="#399de5"] ;
412 -> 414 ;
415 [label="age <= 55.0\ngini = 0.245\nsamples = 21\nvalue = [18, 3]\nclass = <=50", fillcolor="#e9965a"] ;
409 -> 415 ;
416 [label="native-country <= 31.5\ngini = 0.32\nsamples = 10\nvalue = [8, 2]\nclass = <=50", fillcolor="#eca06a"] ;
415 -> 416 ;
417 [label="gini = 0.0\nsamples = 2\nvalue = [2, 0]\nclass = <=50", fillcolor="#e58139"] ;
416 -> 417 ;
418 [label="workclass <= 2.0\ngini = 0.375\nsamples = 8\nvalue = [6, 2]\nclass = <=50", fillcolor="#eeab7b"] ;
416 -> 418 ;
419 [label="gini = 0.0\nsamples = 1\nvalue = [1, 0]\nclass = <=50", fillcolor="#e58139"] ;
418 -> 419 ;
420 [label="education <= 3.5\ngini = 0.408\nsamples = 7\nvalue = [5, 2]\nclass = <=50", fillcolor="#efb388"] ;
418 -> 420 ;
421 [label="gini = 0.0\nsamples = 1\nvalue = [1, 0]\nclass = <=50", fillcolor="#e58139"] ;
420 -> 421 ;
422 [label="education <= 4.5\ngini = 0.444\nsamples = 6\nvalue = [4, 2]\nclass = <=50", fillcolor="#f2c09c"] ;
420 -> 422 ;
423 [label="gini = 0.5\nsamples = 2\nvalue = [1, 1]\nclass = <=50", fillcolor="#ffffff"] ;
422 -> 423 ;
424 [label="gini = 0.375\nsamples = 4\nvalue = [3, 1]\nclass = <=50", fillcolor="#eeab7b"] ;
422 -> 424 ;
425 [label="education <= 4.5\ngini = 0.165\nsamples = 11\nvalue = [10, 1]\nclass = <=50", fillcolor="#e88e4d"] ;
415 -> 425 ;
426 [label="gini = 0.0\nsamples = 4\nvalue = [4, 0]\nclass = <=50", fillcolor="#e58139"] ;
425 -> 426 ;
427 [label="gini = 0.245\nsamples = 7\nvalue = [6, 1]\nclass = <=50", fillcolor="#e9965a"] ;
425 -> 427 ;
428 [label="gini = 0.0\nsamples = 6\nvalue = [6, 0]\nclass = <=50", fillcolor="#e58139"] ;
408 -> 428 ;
429 [label="workclass <= 2.0\ngini = 0.397\nsamples = 11\nvalue = [8, 3]\nclass = <=50", fillcolor="#efb083"] ;
305 -> 429 ;
430 [label="gini = 0.0\nsamples = 1\nvalue = [0, 1]\nclass = >50", fillcolor="#399de5"] ;
429 -> 430 ;
431 [label="occupation <= 9.0\ngini = 0.32\nsamples = 10\nvalue = [8, 2]\nclass = <=50", fillcolor="#eca06a"] ;
429 -> 431 ;
432 [label="age <= 35.0\ngini = 0.198\nsamples = 9\nvalue = [8, 1]\nclass = <=50", fillcolor="#e89152"] ;
431 -> 432 ;
433 [label="occupation <= 6.5\ngini = 0.444\nsamples = 3\nvalue = [2, 1]\nclass = <=50", fillcolor="#f2c09c"] ;
432 -> 433 ;
434 [label="gini = 0.0\nsamples = 1\nvalue = [0, 1]\nclass = >50", fillcolor="#399de5"] ;
433 -> 434 ;
435 [label="gini = 0.0\nsamples = 2\nvalue = [2, 0]\nclass = <=50", fillcolor="#e58139"] ;
433 -> 435 ;
436 [label="gini = 0.0\nsamples = 6\nvalue = [6, 0]\nclass = <=50", fillcolor="#e58139"] ;
432 -> 436 ;
437 [label="gini = 0.0\nsamples = 1\nvalue = [0, 1]\nclass = >50", fillcolor="#399de5"] ;
431 -> 437 ;
438 [label="workclass <= 5.5\ngini = 0.26\nsamples = 169\nvalue = [143, 26]\nclass = <=50", fillcolor="#ea985d"] ;
304 -> 438 ;
439 [label="occupation <= 5.5\ngini = 0.311\nsamples = 114\nvalue = [92, 22]\nclass = <=50", fillcolor="#eb9f68"] ;
438 -> 439 ;
440 [label="occupation <= 3.5\ngini = 0.237\nsamples = 80\nvalue = [69, 11]\nclass = <=50", fillcolor="#e99559"] ;
439 -> 440 ;
441 [label="occupation <= 2.5\ngini = 0.31\nsamples = 47\nvalue = [38, 9]\nclass = <=50", fillcolor="#eb9f68"] ;
440 -> 441 ;
442 [label="workclass <= 4.5\ngini = 0.229\nsamples = 38\nvalue = [33, 5]\nclass = <=50", fillcolor="#e99457"] ;
441 -> 442 ;
443 [label="age <= 45.0\ngini = 0.5\nsamples = 4\nvalue = [2, 2]\nclass = <=50", fillcolor="#ffffff"] ;
442 -> 443 ;
444 [label="gini = 0.0\nsamples = 2\nvalue = [2, 0]\nclass = <=50", fillcolor="#e58139"] ;
443 -> 444 ;
445 [label="gini = 0.0\nsamples = 2\nvalue = [0, 2]\nclass = >50", fillcolor="#399de5"] ;
443 -> 445 ;
446 [label="education <= 4.5\ngini = 0.161\nsamples = 34\nvalue = [31, 3]\nclass = <=50", fillcolor="#e88d4c"] ;
442 -> 446 ;
447 [label="age <= 35.0\ngini = 0.375\nsamples = 4\nvalue = [3, 1]\nclass = <=50", fillcolor="#eeab7b"] ;
446 -> 447 ;
448 [label="gini = 0.0\nsamples = 1\nvalue = [0, 1]\nclass = >50", fillcolor="#399de5"] ;
447 -> 448 ;
449 [label="gini = 0.0\nsamples = 3\nvalue = [3, 0]\nclass = <=50", fillcolor="#e58139"] ;
447 -> 449 ;
450 [label="age <= 35.0\ngini = 0.124\nsamples = 30\nvalue = [28, 2]\nclass = <=50", fillcolor="#e78a47"] ;
446 -> 450 ;
451 [label="gini = 0.0\nsamples = 12\nvalue = [12, 0]\nclass = <=50", fillcolor="#e58139"] ;
450 -> 451 ;
452 [label="age <= 55.0\ngini = 0.198\nsamples = 18\nvalue = [16, 2]\nclass = <=50", fillcolor="#e89152"] ;
450 -> 452 ;
453 [label="native-country <= 29.5\ngini = 0.32\nsamples = 10\nvalue = [8, 2]\nclass = <=50", fillcolor="#eca06a"] ;
452 -> 453 ;
454 [label="gini = 0.0\nsamples = 2\nvalue = [2, 0]\nclass = <=50", fillcolor="#e58139"] ;
453 -> 454 ;
455 [label="age <= 45.0\ngini = 0.375\nsamples = 8\nvalue = [6, 2]\nclass = <=50", fillcolor="#eeab7b"] ;
453 -> 455 ;
456 [label="education <= 5.5\ngini = 0.444\nsamples = 3\nvalue = [2, 1]\nclass = <=50", fillcolor="#f2c09c"] ;
455 -> 456 ;
457 [label="gini = 0.0\nsamples = 1\nvalue = [1, 0]\nclass = <=50", fillcolor="#e58139"] ;
456 -> 457 ;
458 [label="gini = 0.5\nsamples = 2\nvalue = [1, 1]\nclass = <=50", fillcolor="#ffffff"] ;
456 -> 458 ;
459 [label="education <= 5.5\ngini = 0.32\nsamples = 5\nvalue = [4, 1]\nclass = <=50", fillcolor="#eca06a"] ;
455 -> 459 ;
460 [label="gini = 0.444\nsamples = 3\nvalue = [2, 1]\nclass = <=50", fillcolor="#f2c09c"] ;
459 -> 460 ;
461 [label="gini = 0.0\nsamples = 2\nvalue = [2, 0]\nclass = <=50", fillcolor="#e58139"] ;
459 -> 461 ;
462 [label="gini = 0.0\nsamples = 8\nvalue = [8, 0]\nclass = <=50", fillcolor="#e58139"] ;
452 -> 462 ;
463 [label="age <= 55.0\ngini = 0.494\nsamples = 9\nvalue = [5, 4]\nclass = <=50", fillcolor="#fae6d7"] ;
441 -> 463 ;
464 [label="workclass <= 4.5\ngini = 0.32\nsamples = 5\nvalue = [1, 4]\nclass = >50", fillcolor="#6ab6ec"] ;
463 -> 464 ;
465 [label="gini = 0.0\nsamples = 1\nvalue = [1, 0]\nclass = <=50", fillcolor="#e58139"] ;
464 -> 465 ;
466 [label="gini = 0.0\nsamples = 4\nvalue = [0, 4]\nclass = >50", fillcolor="#399de5"] ;
464 -> 466 ;
467 [label="gini = 0.0\nsamples = 4\nvalue = [4, 0]\nclass = <=50", fillcolor="#e58139"] ;
463 -> 467 ;
468 [label="age <= 55.0\ngini = 0.114\nsamples = 33\nvalue = [31, 2]\nclass = <=50", fillcolor="#e78946"] ;
440 -> 468 ;
469 [label="gini = 0.0\nsamples = 15\nvalue = [15, 0]\nclass = <=50", fillcolor="#e58139"] ;
468 -> 469 ;
470 [label="education <= 4.5\ngini = 0.198\nsamples = 18\nvalue = [16, 2]\nclass = <=50", fillcolor="#e89152"] ;
468 -> 470 ;
471 [label="gini = 0.0\nsamples = 4\nvalue = [4, 0]\nclass = <=50", fillcolor="#e58139"] ;
470 -> 471 ;
472 [label="age <= 75.0\ngini = 0.245\nsamples = 14\nvalue = [12, 2]\nclass = <=50", fillcolor="#e9965a"] ;
470 -> 472 ;
473 [label="education <= 5.5\ngini = 0.278\nsamples = 12\nvalue = [10, 2]\nclass = <=50", fillcolor="#ea9a61"] ;
472 -> 473 ;
474 [label="age <= 65.0\ngini = 0.32\nsamples = 10\nvalue = [8, 2]\nclass = <=50", fillcolor="#eca06a"] ;
473 -> 474 ;
475 [label="gini = 0.32\nsamples = 5\nvalue = [4, 1]\nclass = <=50", fillcolor="#eca06a"] ;
474 -> 475 ;
476 [label="gini = 0.32\nsamples = 5\nvalue = [4, 1]\nclass = <=50", fillcolor="#eca06a"] ;
474 -> 476 ;
477 [label="gini = 0.0\nsamples = 2\nvalue = [2, 0]\nclass = <=50", fillcolor="#e58139"] ;
473 -> 477 ;
478 [label="gini = 0.0\nsamples = 2\nvalue = [2, 0]\nclass = <=50", fillcolor="#e58139"] ;
472 -> 478 ;
479 [label="age <= 35.0\ngini = 0.438\nsamples = 34\nvalue = [23, 11]\nclass = <=50", fillcolor="#f1bd98"] ;
439 -> 479 ;
480 [label="age <= 25.0\ngini = 0.49\nsamples = 7\nvalue = [3, 4]\nclass = >50", fillcolor="#cee6f8"] ;
479 -> 480 ;
481 [label="gini = 0.0\nsamples = 1\nvalue = [1, 0]\nclass = <=50", fillcolor="#e58139"] ;
480 -> 481 ;
482 [label="occupation <= 12.0\ngini = 0.444\nsamples = 6\nvalue = [2, 4]\nclass = >50", fillcolor="#9ccef2"] ;
480 -> 482 ;
483 [label="native-country <= 31.5\ngini = 0.5\nsamples = 4\nvalue = [2, 2]\nclass = <=50", fillcolor="#ffffff"] ;
482 -> 483 ;
484 [label="gini = 0.0\nsamples = 1\nvalue = [1, 0]\nclass = <=50", fillcolor="#e58139"] ;
483 -> 484 ;
485 [label="occupation <= 7.5\ngini = 0.444\nsamples = 3\nvalue = [1, 2]\nclass = >50", fillcolor="#9ccef2"] ;
483 -> 485 ;
486 [label="gini = 0.0\nsamples = 1\nvalue = [0, 1]\nclass = >50", fillcolor="#399de5"] ;
485 -> 486 ;
487 [label="occupation <= 10.0\ngini = 0.5\nsamples = 2\nvalue = [1, 1]\nclass = <=50", fillcolor="#ffffff"] ;
485 -> 487 ;
488 [label="gini = 0.0\nsamples = 1\nvalue = [1, 0]\nclass = <=50", fillcolor="#e58139"] ;
487 -> 488 ;
489 [label="gini = 0.0\nsamples = 1\nvalue = [0, 1]\nclass = >50", fillcolor="#399de5"] ;
487 -> 489 ;
490 [label="gini = 0.0\nsamples = 2\nvalue = [0, 2]\nclass = >50", fillcolor="#399de5"] ;
482 -> 490 ;
491 [label="education <= 3.5\ngini = 0.384\nsamples = 27\nvalue = [20, 7]\nclass = <=50", fillcolor="#eead7e"] ;
479 -> 491 ;
492 [label="gini = 0.0\nsamples = 4\nvalue = [4, 0]\nclass = <=50", fillcolor="#e58139"] ;
491 -> 492 ;
493 [label="native-country <= 14.0\ngini = 0.423\nsamples = 23\nvalue = [16, 7]\nclass = <=50", fillcolor="#f0b890"] ;
491 -> 493 ;
494 [label="gini = 0.0\nsamples = 2\nvalue = [2, 0]\nclass = <=50", fillcolor="#e58139"] ;
493 -> 494 ;
495 [label="native-country <= 23.0\ngini = 0.444\nsamples = 21\nvalue = [14, 7]\nclass = <=50", fillcolor="#f2c09c"] ;
493 -> 495 ;
496 [label="gini = 0.0\nsamples = 1\nvalue = [0, 1]\nclass = >50", fillcolor="#399de5"] ;
495 -> 496 ;
497 [label="age <= 45.0\ngini = 0.42\nsamples = 20\nvalue = [14, 6]\nclass = <=50", fillcolor="#f0b78e"] ;
495 -> 497 ;
498 [label="gini = 0.0\nsamples = 4\nvalue = [4, 0]\nclass = <=50", fillcolor="#e58139"] ;
497 -> 498 ;
499 [label="education <= 4.5\ngini = 0.469\nsamples = 16\nvalue = [10, 6]\nclass = <=50", fillcolor="#f5cdb0"] ;
497 -> 499 ;
500 [label="gini = 0.0\nsamples = 1\nvalue = [0, 1]\nclass = >50", fillcolor="#399de5"] ;
499 -> 500 ;
501 [label="occupation <= 10.0\ngini = 0.444\nsamples = 15\nvalue = [10, 5]\nclass = <=50", fillcolor="#f2c09c"] ;
499 -> 501 ;
502 [label="occupation <= 6.5\ngini = 0.32\nsamples = 5\nvalue = [4, 1]\nclass = <=50", fillcolor="#eca06a"] ;
501 -> 502 ;
503 [label="workclass <= 4.5\ngini = 0.5\nsamples = 2\nvalue = [1, 1]\nclass = <=50", fillcolor="#ffffff"] ;
502 -> 503 ;
504 [label="gini = 0.0\nsamples = 1\nvalue = [0, 1]\nclass = >50", fillcolor="#399de5"] ;
503 -> 504 ;
505 [label="gini = 0.0\nsamples = 1\nvalue = [1, 0]\nclass = <=50", fillcolor="#e58139"] ;
503 -> 505 ;
506 [label="gini = 0.0\nsamples = 3\nvalue = [3, 0]\nclass = <=50", fillcolor="#e58139"] ;
502 -> 506 ;
507 [label="workclass <= 4.5\ngini = 0.48\nsamples = 10\nvalue = [6, 4]\nclass = <=50", fillcolor="#f6d5bd"] ;
501 -> 507 ;
508 [label="gini = 0.0\nsamples = 1\nvalue = [1, 0]\nclass = <=50", fillcolor="#e58139"] ;
507 -> 508 ;
509 [label="education <= 5.5\ngini = 0.494\nsamples = 9\nvalue = [5, 4]\nclass = <=50", fillcolor="#fae6d7"] ;
507 -> 509 ;
510 [label="occupation <= 12.5\ngini = 0.469\nsamples = 8\nvalue = [5, 3]\nclass = <=50", fillcolor="#f5cdb0"] ;
509 -> 510 ;
511 [label="age <= 55.0\ngini = 0.375\nsamples = 4\nvalue = [3, 1]\nclass = <=50", fillcolor="#eeab7b"] ;
510 -> 511 ;
512 [label="gini = 0.0\nsamples = 1\nvalue = [1, 0]\nclass = <=50", fillcolor="#e58139"] ;
511 -> 512 ;
513 [label="gini = 0.444\nsamples = 3\nvalue = [2, 1]\nclass = <=50", fillcolor="#f2c09c"] ;
511 -> 513 ;
514 [label="age <= 55.0\ngini = 0.5\nsamples = 4\nvalue = [2, 2]\nclass = <=50", fillcolor="#ffffff"] ;
510 -> 514 ;
515 [label="gini = 0.5\nsamples = 2\nvalue = [1, 1]\nclass = <=50", fillcolor="#ffffff"] ;
514 -> 515 ;
516 [label="gini = 0.5\nsamples = 2\nvalue = [1, 1]\nclass = <=50", fillcolor="#ffffff"] ;
514 -> 516 ;
517 [label="gini = 0.0\nsamples = 1\nvalue = [0, 1]\nclass = >50", fillcolor="#399de5"] ;
509 -> 517 ;
518 [label="age <= 65.0\ngini = 0.135\nsamples = 55\nvalue = [51, 4]\nclass = <=50", fillcolor="#e78b49"] ;
438 -> 518 ;
519 [label="native-country <= 33.5\ngini = 0.165\nsamples = 44\nvalue = [40, 4]\nclass = <=50", fillcolor="#e88e4d"] ;
518 -> 519 ;
520 [label="gini = 0.0\nsamples = 8\nvalue = [8, 0]\nclass = <=50", fillcolor="#e58139"] ;
519 -> 520 ;
521 [label="workclass <= 7.0\ngini = 0.198\nsamples = 36\nvalue = [32, 4]\nclass = <=50", fillcolor="#e89152"] ;
519 -> 521 ;
522 [label="gini = 0.0\nsamples = 7\nvalue = [7, 0]\nclass = <=50", fillcolor="#e58139"] ;
521 -> 522 ;
523 [label="education <= 4.5\ngini = 0.238\nsamples = 29\nvalue = [25, 4]\nclass = <=50", fillcolor="#e99559"] ;
521 -> 523 ;
524 [label="race <= 3.0\ngini = 0.444\nsamples = 3\nvalue = [2, 1]\nclass = <=50", fillcolor="#f2c09c"] ;
523 -> 524 ;
525 [label="gini = 0.0\nsamples = 1\nvalue = [1, 0]\nclass = <=50", fillcolor="#e58139"] ;
524 -> 525 ;
526 [label="gini = 0.5\nsamples = 2\nvalue = [1, 1]\nclass = <=50", fillcolor="#ffffff"] ;
524 -> 526 ;
527 [label="age <= 55.0\ngini = 0.204\nsamples = 26\nvalue = [23, 3]\nclass = <=50", fillcolor="#e89153"] ;
523 -> 527 ;
528 [label="gini = 0.0\nsamples = 6\nvalue = [6, 0]\nclass = <=50", fillcolor="#e58139"] ;
527 -> 528 ;
529 [label="race <= 2.0\ngini = 0.255\nsamples = 20\nvalue = [17, 3]\nclass = <=50", fillcolor="#ea975c"] ;
527 -> 529 ;
530 [label="gini = 0.0\nsamples = 1\nvalue = [1, 0]\nclass = <=50", fillcolor="#e58139"] ;
529 -> 530 ;
531 [label="education <= 5.5\ngini = 0.266\nsamples = 19\nvalue = [16, 3]\nclass = <=50", fillcolor="#ea995e"] ;
529 -> 531 ;
532 [label="gini = 0.26\nsamples = 13\nvalue = [11, 2]\nclass = <=50", fillcolor="#ea985d"] ;
531 -> 532 ;
533 [label="gini = 0.278\nsamples = 6\nvalue = [5, 1]\nclass = <=50", fillcolor="#ea9a61"] ;
531 -> 533 ;
534 [label="gini = 0.0\nsamples = 11\nvalue = [11, 0]\nclass = <=50", fillcolor="#e58139"] ;
518 -> 534 ;
535 [label="education <= 10.5\ngini = 0.5\nsamples = 9417\nvalue = [4832, 4585]\nclass = <=50", fillcolor="#fef9f5"] ;
1 -> 535 ;
536 [label="education <= 8.5\ngini = 0.467\nsamples = 2994\nvalue = [1113, 1881]\nclass = >50", fillcolor="#aed7f4"] ;
535 -> 536 ;
537 [label="age <= 35.0\ngini = 0.496\nsamples = 811\nvalue = [440, 371]\nclass = <=50", fillcolor="#fbebe0"] ;
536 -> 537 ;
538 [label="workclass <= 4.5\ngini = 0.462\nsamples = 373\nvalue = [238, 135]\nclass = <=50", fillcolor="#f4c8a9"] ;
537 -> 538 ;
539 [label="age <= 25.0\ngini = 0.475\nsamples = 329\nvalue = [201, 128]\nclass = <=50", fillcolor="#f6d1b7"] ;
538 -> 539 ;
540 [label="workclass <= 2.0\ngini = 0.39\nsamples = 79\nvalue = [58, 21]\nclass = <=50", fillcolor="#eeaf81"] ;
539 -> 540 ;
541 [label="occupation <= 1.0\ngini = 0.49\nsamples = 7\nvalue = [3, 4]\nclass = >50", fillcolor="#cee6f8"] ;
540 -> 541 ;
542 [label="gini = 0.0\nsamples = 2\nvalue = [2, 0]\nclass = <=50", fillcolor="#e58139"] ;
541 -> 542 ;
543 [label="race <= 3.0\ngini = 0.32\nsamples = 5\nvalue = [1, 4]\nclass = >50", fillcolor="#6ab6ec"] ;
541 -> 543 ;
544 [label="race <= 1.5\ngini = 0.5\nsamples = 2\nvalue = [1, 1]\nclass = <=50", fillcolor="#ffffff"] ;
543 -> 544 ;
545 [label="gini = 0.0\nsamples = 1\nvalue = [0, 1]\nclass = >50", fillcolor="#399de5"] ;
544 -> 545 ;
546 [label="gini = 0.0\nsamples = 1\nvalue = [1, 0]\nclass = <=50", fillcolor="#e58139"] ;
544 -> 546 ;
547 [label="gini = 0.0\nsamples = 3\nvalue = [0, 3]\nclass = >50", fillcolor="#399de5"] ;
543 -> 547 ;
548 [label="marital-status <= 1.5\ngini = 0.361\nsamples = 72\nvalue = [55, 17]\nclass = <=50", fillcolor="#eda876"] ;
540 -> 548 ;
549 [label="gini = 0.0\nsamples = 1\nvalue = [0, 1]\nclass = >50", fillcolor="#399de5"] ;
548 -> 549 ;
550 [label="education <= 7.5\ngini = 0.349\nsamples = 71\nvalue = [55, 16]\nclass = <=50", fillcolor="#eda673"] ;
548 -> 550 ;
551 [label="occupation <= 5.5\ngini = 0.465\nsamples = 19\nvalue = [12, 7]\nclass = <=50", fillcolor="#f4caac"] ;
550 -> 551 ;
552 [label="occupation <= 2.5\ngini = 0.346\nsamples = 9\nvalue = [7, 2]\nclass = <=50", fillcolor="#eca572"] ;
551 -> 552 ;
553 [label="occupation <= 1.0\ngini = 0.48\nsamples = 5\nvalue = [3, 2]\nclass = <=50", fillcolor="#f6d5bd"] ;
552 -> 553 ;
554 [label="gini = 0.5\nsamples = 2\nvalue = [1, 1]\nclass = <=50", fillcolor="#ffffff"] ;
553 -> 554 ;
555 [label="gini = 0.444\nsamples = 3\nvalue = [2, 1]\nclass = <=50", fillcolor="#f2c09c"] ;
553 -> 555 ;
556 [label="gini = 0.0\nsamples = 4\nvalue = [4, 0]\nclass = <=50", fillcolor="#e58139"] ;
552 -> 556 ;
557 [label="occupation <= 10.0\ngini = 0.5\nsamples = 10\nvalue = [5, 5]\nclass = <=50", fillcolor="#ffffff"] ;
551 -> 557 ;
558 [label="gini = 0.0\nsamples = 2\nvalue = [0, 2]\nclass = >50", fillcolor="#399de5"] ;
557 -> 558 ;
559 [label="occupation <= 12.5\ngini = 0.469\nsamples = 8\nvalue = [5, 3]\nclass = <=50", fillcolor="#f5cdb0"] ;
557 -> 559 ;
560 [label="occupation <= 11.5\ngini = 0.49\nsamples = 7\nvalue = [4, 3]\nclass = <=50", fillcolor="#f8e0ce"] ;
559 -> 560 ;
561 [label="gini = 0.375\nsamples = 4\nvalue = [3, 1]\nclass = <=50", fillcolor="#eeab7b"] ;
560 -> 561 ;
562 [label="gini = 0.444\nsamples = 3\nvalue = [1, 2]\nclass = >50", fillcolor="#9ccef2"] ;
560 -> 562 ;
563 [label="gini = 0.0\nsamples = 1\nvalue = [1, 0]\nclass = <=50", fillcolor="#e58139"] ;
559 -> 563 ;
564 [label="occupation <= 10.0\ngini = 0.286\nsamples = 52\nvalue = [43, 9]\nclass = <=50", fillcolor="#ea9b62"] ;
550 -> 564 ;
565 [label="native-country <= 31.5\ngini = 0.326\nsamples = 39\nvalue = [31, 8]\nclass = <=50", fillcolor="#eca26c"] ;
564 -> 565 ;
566 [label="gini = 0.0\nsamples = 3\nvalue = [3, 0]\nclass = <=50", fillcolor="#e58139"] ;
565 -> 566 ;
567 [label="occupation <= 1.0\ngini = 0.346\nsamples = 36\nvalue = [28, 8]\nclass = <=50", fillcolor="#eca572"] ;
565 -> 567 ;
568 [label="gini = 0.0\nsamples = 3\nvalue = [3, 0]\nclass = <=50", fillcolor="#e58139"] ;
567 -> 568 ;
569 [label="occupation <= 4.5\ngini = 0.367\nsamples = 33\nvalue = [25, 8]\nclass = <=50", fillcolor="#eda978"] ;
567 -> 569 ;
570 [label="occupation <= 2.5\ngini = 0.43\nsamples = 16\nvalue = [11, 5]\nclass = <=50", fillcolor="#f1ba93"] ;
569 -> 570 ;
571 [label="gini = 0.397\nsamples = 11\nvalue = [8, 3]\nclass = <=50", fillcolor="#efb083"] ;
570 -> 571 ;
572 [label="occupation <= 3.5\ngini = 0.48\nsamples = 5\nvalue = [3, 2]\nclass = <=50", fillcolor="#f6d5bd"] ;
570 -> 572 ;
573 [label="gini = 0.5\nsamples = 2\nvalue = [1, 1]\nclass = <=50", fillcolor="#ffffff"] ;
572 -> 573 ;
574 [label="gini = 0.444\nsamples = 3\nvalue = [2, 1]\nclass = <=50", fillcolor="#f2c09c"] ;
572 -> 574 ;
575 [label="occupation <= 5.5\ngini = 0.291\nsamples = 17\nvalue = [14, 3]\nclass = <=50", fillcolor="#eb9c63"] ;
569 -> 575 ;
576 [label="gini = 0.0\nsamples = 3\nvalue = [3, 0]\nclass = <=50", fillcolor="#e58139"] ;
575 -> 576 ;
577 [label="native-country <= 39.5\ngini = 0.337\nsamples = 14\nvalue = [11, 3]\nclass = <=50", fillcolor="#eca36f"] ;
575 -> 577 ;
578 [label="occupation <= 6.5\ngini = 0.355\nsamples = 13\nvalue = [10, 3]\nclass = <=50", fillcolor="#eda774"] ;
577 -> 578 ;
579 [label="gini = 0.278\nsamples = 6\nvalue = [5, 1]\nclass = <=50", fillcolor="#ea9a61"] ;
578 -> 579 ;
580 [label="occupation <= 8.0\ngini = 0.408\nsamples = 7\nvalue = [5, 2]\nclass = <=50", fillcolor="#efb388"] ;
578 -> 580 ;
581 [label="gini = 0.444\nsamples = 3\nvalue = [2, 1]\nclass = <=50", fillcolor="#f2c09c"] ;
580 -> 581 ;
582 [label="gini = 0.375\nsamples = 4\nvalue = [3, 1]\nclass = <=50", fillcolor="#eeab7b"] ;
580 -> 582 ;
583 [label="gini = 0.0\nsamples = 1\nvalue = [1, 0]\nclass = <=50", fillcolor="#e58139"] ;
577 -> 583 ;
584 [label="occupation <= 11.5\ngini = 0.142\nsamples = 13\nvalue = [12, 1]\nclass = <=50", fillcolor="#e78c49"] ;
564 -> 584 ;
585 [label="gini = 0.0\nsamples = 5\nvalue = [5, 0]\nclass = <=50", fillcolor="#e58139"] ;
584 -> 585 ;
586 [label="occupation <= 12.5\ngini = 0.219\nsamples = 8\nvalue = [7, 1]\nclass = <=50", fillcolor="#e99355"] ;
584 -> 586 ;
587 [label="native-country <= 31.5\ngini = 0.32\nsamples = 5\nvalue = [4, 1]\nclass = <=50", fillcolor="#eca06a"] ;
586 -> 587 ;
588 [label="gini = 0.0\nsamples = 1\nvalue = [1, 0]\nclass = <=50", fillcolor="#e58139"] ;
587 -> 588 ;
589 [label="gini = 0.375\nsamples = 4\nvalue = [3, 1]\nclass = <=50", fillcolor="#eeab7b"] ;
587 -> 589 ;
590 [label="gini = 0.0\nsamples = 3\nvalue = [3, 0]\nclass = <=50", fillcolor="#e58139"] ;
586 -> 590 ;
591 [label="workclass <= 3.5\ngini = 0.49\nsamples = 250\nvalue = [143, 107]\nclass = <=50", fillcolor="#f8dfcd"] ;
539 -> 591 ;
592 [label="workclass <= 0.5\ngini = 0.485\nsamples = 234\nvalue = [137, 97]\nclass = <=50", fillcolor="#f7dac5"] ;
591 -> 592 ;
593 [label="education <= 7.5\ngini = 0.245\nsamples = 7\nvalue = [6, 1]\nclass = <=50", fillcolor="#e9965a"] ;
592 -> 593 ;
594 [label="gini = 0.0\nsamples = 5\nvalue = [5, 0]\nclass = <=50", fillcolor="#e58139"] ;
593 -> 594 ;
595 [label="occupation <= 7.0\ngini = 0.5\nsamples = 2\nvalue = [1, 1]\nclass = <=50", fillcolor="#ffffff"] ;
593 -> 595 ;
596 [label="gini = 0.0\nsamples = 1\nvalue = [1, 0]\nclass = <=50", fillcolor="#e58139"] ;
595 -> 596 ;
597 [label="gini = 0.0\nsamples = 1\nvalue = [0, 1]\nclass = >50", fillcolor="#399de5"] ;
595 -> 597 ;
598 [label="race <= 0.5\ngini = 0.488\nsamples = 227\nvalue = [131, 96]\nclass = <=50", fillcolor="#f8ddca"] ;
592 -> 598 ;
599 [label="gini = 0.0\nsamples = 2\nvalue = [2, 0]\nclass = <=50", fillcolor="#e58139"] ;
598 -> 599 ;
600 [label="occupation <= 12.5\ngini = 0.489\nsamples = 225\nvalue = [129, 96]\nclass = <=50", fillcolor="#f8dfcc"] ;
598 -> 600 ;
601 [label="native-country <= 20.5\ngini = 0.487\nsamples = 219\nvalue = [127, 92]\nclass = <=50", fillcolor="#f8dcc8"] ;
600 -> 601 ;
602 [label="occupation <= 8.0\ngini = 0.469\nsamples = 8\nvalue = [3, 5]\nclass = >50", fillcolor="#b0d8f5"] ;
601 -> 602 ;
603 [label="native-country <= 8.5\ngini = 0.48\nsamples = 5\nvalue = [3, 2]\nclass = <=50", fillcolor="#f6d5bd"] ;
602 -> 603 ;
604 [label="gini = 0.0\nsamples = 3\nvalue = [3, 0]\nclass = <=50", fillcolor="#e58139"] ;
603 -> 604 ;
605 [label="gini = 0.0\nsamples = 2\nvalue = [0, 2]\nclass = >50", fillcolor="#399de5"] ;
603 -> 605 ;
606 [label="gini = 0.0\nsamples = 3\nvalue = [0, 3]\nclass = >50", fillcolor="#399de5"] ;
602 -> 606 ;
607 [label="native-country <= 24.0\ngini = 0.485\nsamples = 211\nvalue = [124, 87]\nclass = <=50", fillcolor="#f7d9c4"] ;
601 -> 607 ;
608 [label="gini = 0.0\nsamples = 5\nvalue = [5, 0]\nclass = <=50", fillcolor="#e58139"] ;
607 -> 608 ;
609 [label="occupation <= 3.5\ngini = 0.488\nsamples = 206\nvalue = [119, 87]\nclass = <=50", fillcolor="#f8ddca"] ;
607 -> 609 ;
610 [label="occupation <= 2.5\ngini = 0.497\nsamples = 98\nvalue = [53, 45]\nclass = <=50", fillcolor="#fbece1"] ;
609 -> 610 ;
611 [label="native-country <= 34.5\ngini = 0.478\nsamples = 76\nvalue = [46, 30]\nclass = <=50", fillcolor="#f6d3ba"] ;
610 -> 611 ;
612 [label="gini = 0.0\nsamples = 2\nvalue = [0, 2]\nclass = >50", fillcolor="#399de5"] ;
611 -> 612 ;
613 [label="education <= 7.5\ngini = 0.47\nsamples = 74\nvalue = [46, 28]\nclass = <=50", fillcolor="#f5ceb2"] ;
611 -> 613 ;
614 [label="race <= 3.0\ngini = 0.393\nsamples = 26\nvalue = [19, 7]\nclass = <=50", fillcolor="#efaf82"] ;
613 -> 614 ;
615 [label="gini = 0.0\nsamples = 1\nvalue = [0, 1]\nclass = >50", fillcolor="#399de5"] ;
614 -> 615 ;
616 [label="occupation <= 1.0\ngini = 0.365\nsamples = 25\nvalue = [19, 6]\nclass = <=50", fillcolor="#eda978"] ;
614 -> 616 ;
617 [label="workclass <= 2.0\ngini = 0.494\nsamples = 9\nvalue = [5, 4]\nclass = <=50", fillcolor="#fae6d7"] ;
616 -> 617 ;
618 [label="gini = 0.0\nsamples = 1\nvalue = [1, 0]\nclass = <=50", fillcolor="#e58139"] ;
617 -> 618 ;
619 [label="gini = 0.5\nsamples = 8\nvalue = [4, 4]\nclass = <=50", fillcolor="#ffffff"] ;
617 -> 619 ;
620 [label="workclass <= 2.0\ngini = 0.219\nsamples = 16\nvalue = [14, 2]\nclass = <=50", fillcolor="#e99355"] ;
616 -> 620 ;
621 [label="gini = 0.0\nsamples = 1\nvalue = [1, 0]\nclass = <=50", fillcolor="#e58139"] ;
620 -> 621 ;
622 [label="gini = 0.231\nsamples = 15\nvalue = [13, 2]\nclass = <=50", fillcolor="#e99457"] ;
620 -> 622 ;
623 [label="occupation <= 1.0\ngini = 0.492\nsamples = 48\nvalue = [27, 21]\nclass = <=50", fillcolor="#f9e3d3"] ;
613 -> 623 ;
624 [label="race <= 3.0\ngini = 0.5\nsamples = 6\nvalue = [3, 3]\nclass = <=50", fillcolor="#ffffff"] ;
623 -> 624 ;
625 [label="gini = 0.0\nsamples = 1\nvalue = [0, 1]\nclass = >50", fillcolor="#399de5"] ;
624 -> 625 ;
626 [label="gini = 0.48\nsamples = 5\nvalue = [3, 2]\nclass = <=50", fillcolor="#f6d5bd"] ;
624 -> 626 ;
627 [label="race <= 3.0\ngini = 0.49\nsamples = 42\nvalue = [24, 18]\nclass = <=50", fillcolor="#f8e0ce"] ;
623 -> 627 ;
628 [label="gini = 0.0\nsamples = 1\nvalue = [1, 0]\nclass = <=50", fillcolor="#e58139"] ;
627 -> 628 ;
629 [label="gini = 0.493\nsamples = 41\nvalue = [23, 18]\nclass = <=50", fillcolor="#f9e4d4"] ;
627 -> 629 ;
630 [label="native-country <= 35.0\ngini = 0.434\nsamples = 22\nvalue = [7, 15]\nclass = >50", fillcolor="#95cbf1"] ;
610 -> 630 ;
631 [label="gini = 0.0\nsamples = 1\nvalue = [1, 0]\nclass = <=50", fillcolor="#e58139"] ;
630 -> 631 ;
632 [label="education <= 7.5\ngini = 0.408\nsamples = 21\nvalue = [6, 15]\nclass = >50", fillcolor="#88c4ef"] ;
630 -> 632 ;
633 [label="gini = 0.0\nsamples = 7\nvalue = [0, 7]\nclass = >50", fillcolor="#399de5"] ;
632 -> 633 ;
634 [label="workclass <= 2.0\ngini = 0.49\nsamples = 14\nvalue = [6, 8]\nclass = >50", fillcolor="#cee6f8"] ;
632 -> 634 ;
635 [label="gini = 0.5\nsamples = 2\nvalue = [1, 1]\nclass = <=50", fillcolor="#ffffff"] ;
634 -> 635 ;
636 [label="gini = 0.486\nsamples = 12\nvalue = [5, 7]\nclass = >50", fillcolor="#c6e3f8"] ;
634 -> 636 ;
637 [label="occupation <= 5.5\ngini = 0.475\nsamples = 108\nvalue = [66, 42]\nclass = <=50", fillcolor="#f6d1b7"] ;
609 -> 637 ;
638 [label="education <= 7.5\ngini = 0.165\nsamples = 11\nvalue = [10, 1]\nclass = <=50", fillcolor="#e88e4d"] ;
637 -> 638 ;
639 [label="gini = 0.0\nsamples = 3\nvalue = [3, 0]\nclass = <=50", fillcolor="#e58139"] ;
638 -> 639 ;
640 [label="native-country <= 31.5\ngini = 0.219\nsamples = 8\nvalue = [7, 1]\nclass = <=50", fillcolor="#e99355"] ;
638 -> 640 ;
641 [label="gini = 0.0\nsamples = 1\nvalue = [1, 0]\nclass = <=50", fillcolor="#e58139"] ;
640 -> 641 ;
642 [label="occupation <= 4.5\ngini = 0.245\nsamples = 7\nvalue = [6, 1]\nclass = <=50", fillcolor="#e9965a"] ;
640 -> 642 ;
643 [label="gini = 0.0\nsamples = 1\nvalue = [1, 0]\nclass = <=50", fillcolor="#e58139"] ;
642 -> 643 ;
644 [label="gini = 0.278\nsamples = 6\nvalue = [5, 1]\nclass = <=50", fillcolor="#ea9a61"] ;
642 -> 644 ;
645 [label="native-country <= 27.0\ngini = 0.488\nsamples = 97\nvalue = [56, 41]\nclass = <=50", fillcolor="#f8ddca"] ;
637 -> 645 ;
646 [label="gini = 0.0\nsamples = 1\nvalue = [1, 0]\nclass = <=50", fillcolor="#e58139"] ;
645 -> 646 ;
647 [label="native-country <= 30.5\ngini = 0.489\nsamples = 96\nvalue = [55, 41]\nclass = <=50", fillcolor="#f8dfcd"] ;
645 -> 647 ;
648 [label="gini = 0.0\nsamples = 1\nvalue = [0, 1]\nclass = >50", fillcolor="#399de5"] ;
647 -> 648 ;
649 [label="race <= 3.0\ngini = 0.488\nsamples = 95\nvalue = [55, 40]\nclass = <=50", fillcolor="#f8ddc9"] ;
647 -> 649 ;
650 [label="occupation <= 10.5\ngini = 0.32\nsamples = 5\nvalue = [4, 1]\nclass = <=50", fillcolor="#eca06a"] ;
649 -> 650 ;
651 [label="gini = 0.0\nsamples = 3\nvalue = [3, 0]\nclass = <=50", fillcolor="#e58139"] ;
650 -> 651 ;
652 [label="race <= 1.5\ngini = 0.5\nsamples = 2\nvalue = [1, 1]\nclass = <=50", fillcolor="#ffffff"] ;
650 -> 652 ;
653 [label="gini = 0.0\nsamples = 1\nvalue = [1, 0]\nclass = <=50", fillcolor="#e58139"] ;
652 -> 653 ;
654 [label="gini = 0.0\nsamples = 1\nvalue = [0, 1]\nclass = >50", fillcolor="#399de5"] ;
652 -> 654 ;
655 [label="native-country <= 35.0\ngini = 0.491\nsamples = 90\nvalue = [51, 39]\nclass = <=50", fillcolor="#f9e1d0"] ;
649 -> 655 ;
656 [label="gini = 0.0\nsamples = 1\nvalue = [1, 0]\nclass = <=50", fillcolor="#e58139"] ;
655 -> 656 ;
657 [label="occupation <= 6.5\ngini = 0.492\nsamples = 89\nvalue = [50, 39]\nclass = <=50", fillcolor="#f9e3d3"] ;
655 -> 657 ;
658 [label="education <= 7.5\ngini = 0.5\nsamples = 12\nvalue = [6, 6]\nclass = <=50", fillcolor="#ffffff"] ;
657 -> 658 ;
659 [label="gini = 0.375\nsamples = 4\nvalue = [3, 1]\nclass = <=50", fillcolor="#eeab7b"] ;
658 -> 659 ;
660 [label="gini = 0.469\nsamples = 8\nvalue = [3, 5]\nclass = >50", fillcolor="#b0d8f5"] ;
658 -> 660 ;
661 [label="education <= 7.5\ngini = 0.49\nsamples = 77\nvalue = [44, 33]\nclass = <=50", fillcolor="#f8e0ce"] ;
657 -> 661 ;
662 [label="occupation <= 11.5\ngini = 0.5\nsamples = 35\nvalue = [18, 17]\nclass = <=50", fillcolor="#fef8f4"] ;
661 -> 662 ;
663 [label="occupation <= 10.5\ngini = 0.497\nsamples = 28\nvalue = [15, 13]\nclass = <=50", fillcolor="#fceee5"] ;
662 -> 663 ;
664 [label="workclass <= 2.0\ngini = 0.495\nsamples = 20\nvalue = [11, 9]\nclass = <=50", fillcolor="#fae8db"] ;
663 -> 664 ;
665 [label="occupation <= 9.5\ngini = 0.5\nsamples = 6\nvalue = [3, 3]\nclass = <=50", fillcolor="#ffffff"] ;
664 -> 665 ;
666 [label="gini = 0.5\nsamples = 2\nvalue = [1, 1]\nclass = <=50", fillcolor="#ffffff"] ;
665 -> 666 ;
667 [label="gini = 0.5\nsamples = 4\nvalue = [2, 2]\nclass = <=50", fillcolor="#ffffff"] ;
665 -> 667 ;
668 [label="occupation <= 9.5\ngini = 0.49\nsamples = 14\nvalue = [8, 6]\nclass = <=50", fillcolor="#f8e0ce"] ;
664 -> 668 ;
669 [label="gini = 0.497\nsamples = 13\nvalue = [7, 6]\nclass = <=50", fillcolor="#fbede3"] ;
668 -> 669 ;
670 [label="gini = 0.0\nsamples = 1\nvalue = [1, 0]\nclass = <=50", fillcolor="#e58139"] ;
668 -> 670 ;
671 [label="gini = 0.5\nsamples = 8\nvalue = [4, 4]\nclass = <=50", fillcolor="#ffffff"] ;
663 -> 671 ;
672 [label="gini = 0.49\nsamples = 7\nvalue = [3, 4]\nclass = >50", fillcolor="#cee6f8"] ;
662 -> 672 ;
673 [label="occupation <= 11.5\ngini = 0.472\nsamples = 42\nvalue = [26, 16]\nclass = <=50", fillcolor="#f5cfb3"] ;
661 -> 673 ;
674 [label="occupation <= 8.0\ngini = 0.482\nsamples = 32\nvalue = [19, 13]\nclass = <=50", fillcolor="#f7d7c0"] ;
673 -> 674 ;
675 [label="gini = 0.444\nsamples = 6\nvalue = [4, 2]\nclass = <=50", fillcolor="#f2c09c"] ;
674 -> 675 ;
676 [label="occupation <= 9.5\ngini = 0.488\nsamples = 26\nvalue = [15, 11]\nclass = <=50", fillcolor="#f8ddca"] ;
674 -> 676 ;
677 [label="workclass <= 2.0\ngini = 0.5\nsamples = 8\nvalue = [4, 4]\nclass = <=50", fillcolor="#ffffff"] ;
676 -> 677 ;
678 [label="gini = 0.0\nsamples = 1\nvalue = [1, 0]\nclass = <=50", fillcolor="#e58139"] ;
677 -> 678 ;
679 [label="gini = 0.49\nsamples = 7\nvalue = [3, 4]\nclass = >50", fillcolor="#cee6f8"] ;
677 -> 679 ;
680 [label="workclass <= 2.0\ngini = 0.475\nsamples = 18\nvalue = [11, 7]\nclass = <=50", fillcolor="#f6d1b7"] ;
676 -> 680 ;
681 [label="gini = 0.5\nsamples = 4\nvalue = [2, 2]\nclass = <=50", fillcolor="#ffffff"] ;
680 -> 681 ;
682 [label="occupation <= 10.5\ngini = 0.459\nsamples = 14\nvalue = [9, 5]\nclass = <=50", fillcolor="#f3c7a7"] ;
680 -> 682 ;
683 [label="gini = 0.0\nsamples = 1\nvalue = [1, 0]\nclass = <=50", fillcolor="#e58139"] ;
682 -> 683 ;
684 [label="gini = 0.473\nsamples = 13\nvalue = [8, 5]\nclass = <=50", fillcolor="#f5d0b5"] ;
682 -> 684 ;
685 [label="workclass <= 2.0\ngini = 0.42\nsamples = 10\nvalue = [7, 3]\nclass = <=50", fillcolor="#f0b78e"] ;
673 -> 685 ;
686 [label="gini = 0.0\nsamples = 2\nvalue = [2, 0]\nclass = <=50", fillcolor="#e58139"] ;
685 -> 686 ;
687 [label="gini = 0.469\nsamples = 8\nvalue = [5, 3]\nclass = <=50", fillcolor="#f5cdb0"] ;
685 -> 687 ;
688 [label="gini = 0.444\nsamples = 6\nvalue = [2, 4]\nclass = >50", fillcolor="#9ccef2"] ;
600 -> 688 ;
689 [label="occupation <= 3.5\ngini = 0.469\nsamples = 16\nvalue = [6, 10]\nclass = >50", fillcolor="#b0d8f5"] ;
591 -> 689 ;
690 [label="education <= 7.5\ngini = 0.245\nsamples = 7\nvalue = [1, 6]\nclass = >50", fillcolor="#5aade9"] ;
689 -> 690 ;
691 [label="gini = 0.0\nsamples = 4\nvalue = [0, 4]\nclass = >50", fillcolor="#399de5"] ;
690 -> 691 ;
692 [label="occupation <= 2.5\ngini = 0.444\nsamples = 3\nvalue = [1, 2]\nclass = >50", fillcolor="#9ccef2"] ;
690 -> 692 ;
693 [label="gini = 0.0\nsamples = 1\nvalue = [0, 1]\nclass = >50", fillcolor="#399de5"] ;
692 -> 693 ;
694 [label="gini = 0.5\nsamples = 2\nvalue = [1, 1]\nclass = <=50", fillcolor="#ffffff"] ;
692 -> 694 ;
695 [label="occupation <= 10.0\ngini = 0.494\nsamples = 9\nvalue = [5, 4]\nclass = <=50", fillcolor="#fae6d7"] ;
689 -> 695 ;
696 [label="occupation <= 6.5\ngini = 0.444\nsamples = 3\nvalue = [2, 1]\nclass = <=50", fillcolor="#f2c09c"] ;
695 -> 696 ;
697 [label="gini = 0.5\nsamples = 2\nvalue = [1, 1]\nclass = <=50", fillcolor="#ffffff"] ;
696 -> 697 ;
698 [label="gini = 0.0\nsamples = 1\nvalue = [1, 0]\nclass = <=50", fillcolor="#e58139"] ;
696 -> 698 ;
699 [label="education <= 7.5\ngini = 0.5\nsamples = 6\nvalue = [3, 3]\nclass = <=50", fillcolor="#ffffff"] ;
695 -> 699 ;
700 [label="gini = 0.444\nsamples = 3\nvalue = [1, 2]\nclass = >50", fillcolor="#9ccef2"] ;
699 -> 700 ;
701 [label="gini = 0.444\nsamples = 3\nvalue = [2, 1]\nclass = <=50", fillcolor="#f2c09c"] ;
699 -> 701 ;
702 [label="occupation <= 11.5\ngini = 0.268\nsamples = 44\nvalue = [37, 7]\nclass = <=50", fillcolor="#ea995e"] ;
538 -> 702 ;
703 [label="education <= 7.5\ngini = 0.202\nsamples = 35\nvalue = [31, 4]\nclass = <=50", fillcolor="#e89153"] ;
702 -> 703 ;
704 [label="gini = 0.0\nsamples = 7\nvalue = [7, 0]\nclass = <=50", fillcolor="#e58139"] ;
703 -> 704 ;
705 [label="occupation <= 8.0\ngini = 0.245\nsamples = 28\nvalue = [24, 4]\nclass = <=50", fillcolor="#e9965a"] ;
703 -> 705 ;
706 [label="age <= 25.0\ngini = 0.172\nsamples = 21\nvalue = [19, 2]\nclass = <=50", fillcolor="#e88e4e"] ;
705 -> 706 ;
707 [label="gini = 0.0\nsamples = 6\nvalue = [6, 0]\nclass = <=50", fillcolor="#e58139"] ;
706 -> 707 ;
708 [label="occupation <= 2.5\ngini = 0.231\nsamples = 15\nvalue = [13, 2]\nclass = <=50", fillcolor="#e99457"] ;
706 -> 708 ;
709 [label="gini = 0.0\nsamples = 4\nvalue = [4, 0]\nclass = <=50", fillcolor="#e58139"] ;
708 -> 709 ;
710 [label="occupation <= 3.5\ngini = 0.298\nsamples = 11\nvalue = [9, 2]\nclass = <=50", fillcolor="#eb9d65"] ;
708 -> 710 ;
711 [label="gini = 0.5\nsamples = 2\nvalue = [1, 1]\nclass = <=50", fillcolor="#ffffff"] ;
710 -> 711 ;
712 [label="occupation <= 5.5\ngini = 0.198\nsamples = 9\nvalue = [8, 1]\nclass = <=50", fillcolor="#e89152"] ;
710 -> 712 ;
713 [label="gini = 0.219\nsamples = 8\nvalue = [7, 1]\nclass = <=50", fillcolor="#e99355"] ;
712 -> 713 ;
714 [label="gini = 0.0\nsamples = 1\nvalue = [1, 0]\nclass = <=50", fillcolor="#e58139"] ;
712 -> 714 ;
715 [label="age <= 25.0\ngini = 0.408\nsamples = 7\nvalue = [5, 2]\nclass = <=50", fillcolor="#efb388"] ;
705 -> 715 ;
716 [label="gini = 0.0\nsamples = 1\nvalue = [0, 1]\nclass = >50", fillcolor="#399de5"] ;
715 -> 716 ;
717 [label="workclass <= 5.5\ngini = 0.278\nsamples = 6\nvalue = [5, 1]\nclass = <=50", fillcolor="#ea9a61"] ;
715 -> 717 ;
718 [label="native-country <= 24.0\ngini = 0.444\nsamples = 3\nvalue = [2, 1]\nclass = <=50", fillcolor="#f2c09c"] ;
717 -> 718 ;
719 [label="gini = 0.0\nsamples = 1\nvalue = [1, 0]\nclass = <=50", fillcolor="#e58139"] ;
718 -> 719 ;
720 [label="race <= 3.5\ngini = 0.5\nsamples = 2\nvalue = [1, 1]\nclass = <=50", fillcolor="#ffffff"] ;
718 -> 720 ;
721 [label="gini = 0.0\nsamples = 1\nvalue = [1, 0]\nclass = <=50", fillcolor="#e58139"] ;
720 -> 721 ;
722 [label="gini = 0.0\nsamples = 1\nvalue = [0, 1]\nclass = >50", fillcolor="#399de5"] ;
720 -> 722 ;
723 [label="gini = 0.0\nsamples = 3\nvalue = [3, 0]\nclass = <=50", fillcolor="#e58139"] ;
717 -> 723 ;
724 [label="occupation <= 13.5\ngini = 0.444\nsamples = 9\nvalue = [6, 3]\nclass = <=50", fillcolor="#f2c09c"] ;
702 -> 724 ;
725 [label="education <= 7.5\ngini = 0.5\nsamples = 4\nvalue = [2, 2]\nclass = <=50", fillcolor="#ffffff"] ;
724 -> 725 ;
726 [label="occupation <= 12.5\ngini = 0.444\nsamples = 3\nvalue = [1, 2]\nclass = >50", fillcolor="#9ccef2"] ;
725 -> 726 ;
727 [label="gini = 0.0\nsamples = 1\nvalue = [0, 1]\nclass = >50", fillcolor="#399de5"] ;
726 -> 727 ;
728 [label="age <= 25.0\ngini = 0.5\nsamples = 2\nvalue = [1, 1]\nclass = <=50", fillcolor="#ffffff"] ;
726 -> 728 ;
729 [label="gini = 0.0\nsamples = 1\nvalue = [0, 1]\nclass = >50", fillcolor="#399de5"] ;
728 -> 729 ;
730 [label="gini = 0.0\nsamples = 1\nvalue = [1, 0]\nclass = <=50", fillcolor="#e58139"] ;
728 -> 730 ;
731 [label="gini = 0.0\nsamples = 1\nvalue = [1, 0]\nclass = <=50", fillcolor="#e58139"] ;
725 -> 731 ;
732 [label="age <= 25.0\ngini = 0.32\nsamples = 5\nvalue = [4, 1]\nclass = <=50", fillcolor="#eca06a"] ;
724 -> 732 ;
733 [label="gini = 0.0\nsamples = 4\nvalue = [4, 0]\nclass = <=50", fillcolor="#e58139"] ;
732 -> 733 ;
734 [label="gini = 0.0\nsamples = 1\nvalue = [0, 1]\nclass = >50", fillcolor="#399de5"] ;
732 -> 734 ;
735 [label="workclass <= 4.5\ngini = 0.497\nsamples = 438\nvalue = [202, 236]\nclass = >50", fillcolor="#e2f1fb"] ;
537 -> 735 ;
736 [label="occupation <= 12.5\ngini = 0.492\nsamples = 364\nvalue = [159, 205]\nclass = >50", fillcolor="#d3e9f9"] ;
735 -> 736 ;
737 [label="occupation <= 2.5\ngini = 0.487\nsamples = 351\nvalue = [147, 204]\nclass = >50", fillcolor="#c8e4f8"] ;
736 -> 737 ;
738 [label="workclass <= 0.5\ngini = 0.5\nsamples = 114\nvalue = [57, 57]\nclass = <=50", fillcolor="#ffffff"] ;
737 -> 738 ;
739 [label="age <= 45.0\ngini = 0.337\nsamples = 14\nvalue = [3, 11]\nclass = >50", fillcolor="#6fb8ec"] ;
738 -> 739 ;
740 [label="occupation <= 1.0\ngini = 0.165\nsamples = 11\nvalue = [1, 10]\nclass = >50", fillcolor="#4da7e8"] ;
739 -> 740 ;
741 [label="gini = 0.0\nsamples = 6\nvalue = [0, 6]\nclass = >50", fillcolor="#399de5"] ;
740 -> 741 ;
742 [label="race <= 3.0\ngini = 0.32\nsamples = 5\nvalue = [1, 4]\nclass = >50", fillcolor="#6ab6ec"] ;
740 -> 742 ;
743 [label="gini = 0.0\nsamples = 2\nvalue = [0, 2]\nclass = >50", fillcolor="#399de5"] ;
742 -> 743 ;
744 [label="education <= 7.5\ngini = 0.444\nsamples = 3\nvalue = [1, 2]\nclass = >50", fillcolor="#9ccef2"] ;
742 -> 744 ;
745 [label="gini = 0.0\nsamples = 1\nvalue = [0, 1]\nclass = >50", fillcolor="#399de5"] ;
744 -> 745 ;
746 [label="gini = 0.5\nsamples = 2\nvalue = [1, 1]\nclass = <=50", fillcolor="#ffffff"] ;
744 -> 746 ;
747 [label="occupation <= 1.0\ngini = 0.444\nsamples = 3\nvalue = [2, 1]\nclass = <=50", fillcolor="#f2c09c"] ;
739 -> 747 ;
748 [label="gini = 0.0\nsamples = 2\nvalue = [2, 0]\nclass = <=50", fillcolor="#e58139"] ;
747 -> 748 ;
749 [label="gini = 0.0\nsamples = 1\nvalue = [0, 1]\nclass = >50", fillcolor="#399de5"] ;
747 -> 749 ;
750 [label="occupation <= 1.0\ngini = 0.497\nsamples = 100\nvalue = [54, 46]\nclass = <=50", fillcolor="#fbece2"] ;
738 -> 750 ;
751 [label="education <= 7.5\ngini = 0.36\nsamples = 17\nvalue = [13, 4]\nclass = <=50", fillcolor="#eda876"] ;
750 -> 751 ;
752 [label="workclass <= 2.0\ngini = 0.49\nsamples = 7\nvalue = [4, 3]\nclass = <=50", fillcolor="#f8e0ce"] ;
751 -> 752 ;
753 [label="gini = 0.0\nsamples = 3\nvalue = [3, 0]\nclass = <=50", fillcolor="#e58139"] ;
752 -> 753 ;
754 [label="native-country <= 28.0\ngini = 0.375\nsamples = 4\nvalue = [1, 3]\nclass = >50", fillcolor="#7bbeee"] ;
752 -> 754 ;
755 [label="gini = 0.0\nsamples = 1\nvalue = [1, 0]\nclass = <=50", fillcolor="#e58139"] ;
754 -> 755 ;
756 [label="gini = 0.0\nsamples = 3\nvalue = [0, 3]\nclass = >50", fillcolor="#399de5"] ;
754 -> 756 ;
757 [label="age <= 45.0\ngini = 0.18\nsamples = 10\nvalue = [9, 1]\nclass = <=50", fillcolor="#e88f4f"] ;
751 -> 757 ;
758 [label="gini = 0.278\nsamples = 6\nvalue = [5, 1]\nclass = <=50", fillcolor="#ea9a61"] ;
757 -> 758 ;
759 [label="gini = 0.0\nsamples = 4\nvalue = [4, 0]\nclass = <=50", fillcolor="#e58139"] ;
757 -> 759 ;
760 [label="native-country <= 40.5\ngini = 0.5\nsamples = 83\nvalue = [41, 42]\nclass = >50", fillcolor="#fafdfe"] ;
750 -> 760 ;
761 [label="native-country <= 38.5\ngini = 0.5\nsamples = 81\nvalue = [41, 40]\nclass = <=50", fillcolor="#fefcfa"] ;
760 -> 761 ;
762 [label="workclass <= 3.5\ngini = 0.5\nsamples = 79\nvalue = [39, 40]\nclass = >50", fillcolor="#fafdfe"] ;
761 -> 762 ;
763 [label="age <= 45.0\ngini = 0.499\nsamples = 74\nvalue = [35, 39]\nclass = >50", fillcolor="#ebf5fc"] ;
762 -> 763 ;
764 [label="education <= 7.5\ngini = 0.498\nsamples = 45\nvalue = [24, 21]\nclass = <=50", fillcolor="#fcefe6"] ;
763 -> 764 ;
765 [label="gini = 0.42\nsamples = 10\nvalue = [3, 7]\nclass = >50", fillcolor="#8ec7f0"] ;
764 -> 765 ;
766 [label="workclass <= 2.0\ngini = 0.48\nsamples = 35\nvalue = [21, 14]\nclass = <=50", fillcolor="#f6d5bd"] ;
764 -> 766 ;
767 [label="race <= 3.0\ngini = 0.32\nsamples = 5\nvalue = [1, 4]\nclass = >50", fillcolor="#6ab6ec"] ;
766 -> 767 ;
768 [label="gini = 0.0\nsamples = 1\nvalue = [0, 1]\nclass = >50", fillcolor="#399de5"] ;
767 -> 768 ;
769 [label="gini = 0.375\nsamples = 4\nvalue = [1, 3]\nclass = >50", fillcolor="#7bbeee"] ;
767 -> 769 ;
770 [label="native-country <= 6.0\ngini = 0.444\nsamples = 30\nvalue = [20, 10]\nclass = <=50", fillcolor="#f2c09c"] ;
766 -> 770 ;
771 [label="gini = 0.5\nsamples = 2\nvalue = [1, 1]\nclass = <=50", fillcolor="#ffffff"] ;
770 -> 771 ;
772 [label="native-country <= 24.5\ngini = 0.436\nsamples = 28\nvalue = [19, 9]\nclass = <=50", fillcolor="#f1bd97"] ;
770 -> 772 ;
773 [label="gini = 0.0\nsamples = 1\nvalue = [1, 0]\nclass = <=50", fillcolor="#e58139"] ;
772 -> 773 ;
774 [label="race <= 3.0\ngini = 0.444\nsamples = 27\nvalue = [18, 9]\nclass = <=50", fillcolor="#f2c09c"] ;
772 -> 774 ;
775 [label="gini = 0.444\nsamples = 3\nvalue = [2, 1]\nclass = <=50", fillcolor="#f2c09c"] ;
774 -> 775 ;
776 [label="gini = 0.444\nsamples = 24\nvalue = [16, 8]\nclass = <=50", fillcolor="#f2c09c"] ;
774 -> 776 ;
777 [label="race <= 3.0\ngini = 0.471\nsamples = 29\nvalue = [11, 18]\nclass = >50", fillcolor="#b2d9f5"] ;
763 -> 777 ;
778 [label="gini = 0.0\nsamples = 3\nvalue = [0, 3]\nclass = >50", fillcolor="#399de5"] ;
777 -> 778 ;
779 [label="age <= 55.0\ngini = 0.488\nsamples = 26\nvalue = [11, 15]\nclass = >50", fillcolor="#cae5f8"] ;
777 -> 779 ;
780 [label="education <= 7.5\ngini = 0.463\nsamples = 22\nvalue = [8, 14]\nclass = >50", fillcolor="#aad5f4"] ;
779 -> 780 ;
781 [label="native-country <= 21.0\ngini = 0.5\nsamples = 6\nvalue = [3, 3]\nclass = <=50", fillcolor="#ffffff"] ;
780 -> 781 ;
782 [label="gini = 0.0\nsamples = 1\nvalue = [1, 0]\nclass = <=50", fillcolor="#e58139"] ;
781 -> 782 ;
783 [label="gini = 0.48\nsamples = 5\nvalue = [2, 3]\nclass = >50", fillcolor="#bddef6"] ;
781 -> 783 ;
784 [label="native-country <= 34.0\ngini = 0.43\nsamples = 16\nvalue = [5, 11]\nclass = >50", fillcolor="#93caf1"] ;
780 -> 784 ;
785 [label="gini = 0.0\nsamples = 3\nvalue = [0, 3]\nclass = >50", fillcolor="#399de5"] ;
784 -> 785 ;
786 [label="gini = 0.473\nsamples = 13\nvalue = [5, 8]\nclass = >50", fillcolor="#b5daf5"] ;
784 -> 786 ;
787 [label="age <= 70.0\ngini = 0.375\nsamples = 4\nvalue = [3, 1]\nclass = <=50", fillcolor="#eeab7b"] ;
779 -> 787 ;
788 [label="gini = 0.444\nsamples = 3\nvalue = [2, 1]\nclass = <=50", fillcolor="#f2c09c"] ;
787 -> 788 ;
789 [label="gini = 0.0\nsamples = 1\nvalue = [1, 0]\nclass = <=50", fillcolor="#e58139"] ;
787 -> 789 ;
790 [label="education <= 7.5\ngini = 0.32\nsamples = 5\nvalue = [4, 1]\nclass = <=50", fillcolor="#eca06a"] ;
762 -> 790 ;
791 [label="gini = 0.0\nsamples = 2\nvalue = [2, 0]\nclass = <=50", fillcolor="#e58139"] ;
790 -> 791 ;
792 [label="age <= 50.0\ngini = 0.444\nsamples = 3\nvalue = [2, 1]\nclass = <=50", fillcolor="#f2c09c"] ;
790 -> 792 ;
793 [label="gini = 0.5\nsamples = 2\nvalue = [1, 1]\nclass = <=50", fillcolor="#ffffff"] ;
792 -> 793 ;
794 [label="gini = 0.0\nsamples = 1\nvalue = [1, 0]\nclass = <=50", fillcolor="#e58139"] ;
792 -> 794 ;
795 [label="gini = 0.0\nsamples = 2\nvalue = [2, 0]\nclass = <=50", fillcolor="#e58139"] ;
761 -> 795 ;
796 [label="gini = 0.0\nsamples = 2\nvalue = [0, 2]\nclass = >50", fillcolor="#399de5"] ;
760 -> 796 ;
797 [label="occupation <= 3.5\ngini = 0.471\nsamples = 237\nvalue = [90, 147]\nclass = >50", fillcolor="#b2d9f5"] ;
737 -> 797 ;
798 [label="age <= 45.0\ngini = 0.386\nsamples = 69\nvalue = [18, 51]\nclass = >50", fillcolor="#7fc0ee"] ;
797 -> 798 ;
799 [label="education <= 7.5\ngini = 0.229\nsamples = 38\nvalue = [5, 33]\nclass = >50", fillcolor="#57ace9"] ;
798 -> 799 ;
800 [label="workclass <= 3.5\ngini = 0.111\nsamples = 17\nvalue = [1, 16]\nclass = >50", fillcolor="#45a3e7"] ;
799 -> 800 ;
801 [label="gini = 0.0\nsamples = 14\nvalue = [0, 14]\nclass = >50", fillcolor="#399de5"] ;
800 -> 801 ;
802 [label="gini = 0.444\nsamples = 3\nvalue = [1, 2]\nclass = >50", fillcolor="#9ccef2"] ;
800 -> 802 ;
803 [label="workclass <= 2.0\ngini = 0.308\nsamples = 21\nvalue = [4, 17]\nclass = >50", fillcolor="#68b4eb"] ;
799 -> 803 ;
804 [label="gini = 0.5\nsamples = 2\nvalue = [1, 1]\nclass = <=50", fillcolor="#ffffff"] ;
803 -> 804 ;
805 [label="workclass <= 3.5\ngini = 0.266\nsamples = 19\nvalue = [3, 16]\nclass = >50", fillcolor="#5eafea"] ;
803 -> 805 ;
806 [label="race <= 3.0\ngini = 0.32\nsamples = 15\nvalue = [3, 12]\nclass = >50", fillcolor="#6ab6ec"] ;
805 -> 806 ;
807 [label="gini = 0.5\nsamples = 2\nvalue = [1, 1]\nclass = <=50", fillcolor="#ffffff"] ;
806 -> 807 ;
808 [label="gini = 0.26\nsamples = 13\nvalue = [2, 11]\nclass = >50", fillcolor="#5dafea"] ;
806 -> 808 ;
809 [label="gini = 0.0\nsamples = 4\nvalue = [0, 4]\nclass = >50", fillcolor="#399de5"] ;
805 -> 809 ;
810 [label="native-country <= 24.5\ngini = 0.487\nsamples = 31\nvalue = [13, 18]\nclass = >50", fillcolor="#c8e4f8"] ;
798 -> 810 ;
811 [label="gini = 0.0\nsamples = 2\nvalue = [0, 2]\nclass = >50", fillcolor="#399de5"] ;
810 -> 811 ;
812 [label="education <= 7.5\ngini = 0.495\nsamples = 29\nvalue = [13, 16]\nclass = >50", fillcolor="#daedfa"] ;
810 -> 812 ;
813 [label="age <= 55.0\ngini = 0.496\nsamples = 11\nvalue = [6, 5]\nclass = <=50", fillcolor="#fbeade"] ;
812 -> 813 ;
814 [label="workclass <= 1.5\ngini = 0.49\nsamples = 7\nvalue = [3, 4]\nclass = >50", fillcolor="#cee6f8"] ;
813 -> 814 ;
815 [label="gini = 0.0\nsamples = 1\nvalue = [1, 0]\nclass = <=50", fillcolor="#e58139"] ;
814 -> 815 ;
816 [label="gini = 0.444\nsamples = 6\nvalue = [2, 4]\nclass = >50", fillcolor="#9ccef2"] ;
814 -> 816 ;
817 [label="workclass <= 0.5\ngini = 0.375\nsamples = 4\nvalue = [3, 1]\nclass = <=50", fillcolor="#eeab7b"] ;
813 -> 817 ;
818 [label="gini = 0.0\nsamples = 1\nvalue = [0, 1]\nclass = >50", fillcolor="#399de5"] ;
817 -> 818 ;
819 [label="gini = 0.0\nsamples = 3\nvalue = [3, 0]\nclass = <=50", fillcolor="#e58139"] ;
817 -> 819 ;
820 [label="workclass <= 2.0\ngini = 0.475\nsamples = 18\nvalue = [7, 11]\nclass = >50", fillcolor="#b7dbf6"] ;
812 -> 820 ;
821 [label="gini = 0.0\nsamples = 2\nvalue = [0, 2]\nclass = >50", fillcolor="#399de5"] ;
820 -> 821 ;
822 [label="age <= 55.0\ngini = 0.492\nsamples = 16\nvalue = [7, 9]\nclass = >50", fillcolor="#d3e9f9"] ;
820 -> 822 ;
823 [label="workclass <= 3.5\ngini = 0.497\nsamples = 13\nvalue = [6, 7]\nclass = >50", fillcolor="#e3f1fb"] ;
822 -> 823 ;
824 [label="gini = 0.496\nsamples = 11\nvalue = [5, 6]\nclass = >50", fillcolor="#deeffb"] ;
823 -> 824 ;
825 [label="gini = 0.5\nsamples = 2\nvalue = [1, 1]\nclass = <=50", fillcolor="#ffffff"] ;
823 -> 825 ;
826 [label="workclass <= 3.5\ngini = 0.444\nsamples = 3\nvalue = [1, 2]\nclass = >50", fillcolor="#9ccef2"] ;
822 -> 826 ;
827 [label="gini = 0.0\nsamples = 1\nvalue = [0, 1]\nclass = >50", fillcolor="#399de5"] ;
826 -> 827 ;
828 [label="gini = 0.5\nsamples = 2\nvalue = [1, 1]\nclass = <=50", fillcolor="#ffffff"] ;
826 -> 828 ;
829 [label="occupation <= 8.0\ngini = 0.49\nsamples = 168\nvalue = [72, 96]\nclass = >50", fillcolor="#cee6f8"] ;
797 -> 829 ;
830 [label="race <= 1.5\ngini = 0.463\nsamples = 44\nvalue = [28, 16]\nclass = <=50", fillcolor="#f4c9aa"] ;
829 -> 830 ;
831 [label="occupation <= 5.0\ngini = 0.32\nsamples = 5\nvalue = [1, 4]\nclass = >50", fillcolor="#6ab6ec"] ;
830 -> 831 ;
832 [label="gini = 0.0\nsamples = 1\nvalue = [1, 0]\nclass = <=50", fillcolor="#e58139"] ;
831 -> 832 ;
833 [label="gini = 0.0\nsamples = 4\nvalue = [0, 4]\nclass = >50", fillcolor="#399de5"] ;
831 -> 833 ;
834 [label="native-country <= 39.0\ngini = 0.426\nsamples = 39\nvalue = [27, 12]\nclass = <=50", fillcolor="#f1b991"] ;
830 -> 834 ;
835 [label="age <= 65.0\ngini = 0.394\nsamples = 37\nvalue = [27, 10]\nclass = <=50", fillcolor="#efb082"] ;
834 -> 835 ;
836 [label="native-country <= 10.5\ngini = 0.375\nsamples = 36\nvalue = [27, 9]\nclass = <=50", fillcolor="#eeab7b"] ;
835 -> 836 ;
837 [label="gini = 0.0\nsamples = 1\nvalue = [0, 1]\nclass = >50", fillcolor="#399de5"] ;
836 -> 837 ;
838 [label="occupation <= 6.5\ngini = 0.353\nsamples = 35\nvalue = [27, 8]\nclass = <=50", fillcolor="#eda674"] ;
836 -> 838 ;
839 [label="workclass <= 2.0\ngini = 0.435\nsamples = 25\nvalue = [17, 8]\nclass = <=50", fillcolor="#f1bc96"] ;
838 -> 839 ;
840 [label="gini = 0.0\nsamples = 2\nvalue = [2, 0]\nclass = <=50", fillcolor="#e58139"] ;
839 -> 840 ;
841 [label="education <= 7.5\ngini = 0.454\nsamples = 23\nvalue = [15, 8]\nclass = <=50", fillcolor="#f3c4a3"] ;
839 -> 841 ;
842 [label="age <= 45.0\ngini = 0.5\nsamples = 8\nvalue = [4, 4]\nclass = <=50", fillcolor="#ffffff"] ;
841 -> 842 ;
843 [label="occupation <= 4.5\ngini = 0.444\nsamples = 6\nvalue = [4, 2]\nclass = <=50", fillcolor="#f2c09c"] ;
842 -> 843 ;
844 [label="gini = 0.0\nsamples = 1\nvalue = [0, 1]\nclass = >50", fillcolor="#399de5"] ;
843 -> 844 ;
845 [label="occupation <= 5.5\ngini = 0.32\nsamples = 5\nvalue = [4, 1]\nclass = <=50", fillcolor="#eca06a"] ;
843 -> 845 ;
846 [label="gini = 0.0\nsamples = 2\nvalue = [2, 0]\nclass = <=50", fillcolor="#e58139"] ;
845 -> 846 ;
847 [label="gini = 0.444\nsamples = 3\nvalue = [2, 1]\nclass = <=50", fillcolor="#f2c09c"] ;
845 -> 847 ;
848 [label="gini = 0.0\nsamples = 2\nvalue = [0, 2]\nclass = >50", fillcolor="#399de5"] ;
842 -> 848 ;
849 [label="race <= 3.0\ngini = 0.391\nsamples = 15\nvalue = [11, 4]\nclass = <=50", fillcolor="#eeaf81"] ;
841 -> 849 ;
850 [label="gini = 0.0\nsamples = 2\nvalue = [2, 0]\nclass = <=50", fillcolor="#e58139"] ;
849 -> 850 ;
851 [label="native-country <= 24.5\ngini = 0.426\nsamples = 13\nvalue = [9, 4]\nclass = <=50", fillcolor="#f1b991"] ;
849 -> 851 ;
852 [label="gini = 0.0\nsamples = 1\nvalue = [1, 0]\nclass = <=50", fillcolor="#e58139"] ;
851 -> 852 ;
853 [label="age <= 55.0\ngini = 0.444\nsamples = 12\nvalue = [8, 4]\nclass = <=50", fillcolor="#f2c09c"] ;
851 -> 853 ;
854 [label="occupation <= 5.5\ngini = 0.463\nsamples = 11\nvalue = [7, 4]\nclass = <=50", fillcolor="#f4c9aa"] ;
853 -> 854 ;
855 [label="age <= 45.0\ngini = 0.5\nsamples = 4\nvalue = [2, 2]\nclass = <=50", fillcolor="#ffffff"] ;
854 -> 855 ;
856 [label="occupation <= 4.5\ngini = 0.444\nsamples = 3\nvalue = [2, 1]\nclass = <=50", fillcolor="#f2c09c"] ;
855 -> 856 ;
857 [label="gini = 0.5\nsamples = 2\nvalue = [1, 1]\nclass = <=50", fillcolor="#ffffff"] ;
856 -> 857 ;
858 [label="gini = 0.0\nsamples = 1\nvalue = [1, 0]\nclass = <=50", fillcolor="#e58139"] ;
856 -> 858 ;
859 [label="gini = 0.0\nsamples = 1\nvalue = [0, 1]\nclass = >50", fillcolor="#399de5"] ;
855 -> 859 ;
860 [label="age <= 45.0\ngini = 0.408\nsamples = 7\nvalue = [5, 2]\nclass = <=50", fillcolor="#efb388"] ;
854 -> 860 ;
861 [label="gini = 0.48\nsamples = 5\nvalue = [3, 2]\nclass = <=50", fillcolor="#f6d5bd"] ;
860 -> 861 ;
862 [label="gini = 0.0\nsamples = 2\nvalue = [2, 0]\nclass = <=50", fillcolor="#e58139"] ;
860 -> 862 ;
863 [label="gini = 0.0\nsamples = 1\nvalue = [1, 0]\nclass = <=50", fillcolor="#e58139"] ;
853 -> 863 ;
864 [label="gini = 0.0\nsamples = 10\nvalue = [10, 0]\nclass = <=50", fillcolor="#e58139"] ;
838 -> 864 ;
865 [label="gini = 0.0\nsamples = 1\nvalue = [0, 1]\nclass = >50", fillcolor="#399de5"] ;
835 -> 865 ;
866 [label="gini = 0.0\nsamples = 2\nvalue = [0, 2]\nclass = >50", fillcolor="#399de5"] ;
834 -> 866 ;
867 [label="occupation <= 10.5\ngini = 0.458\nsamples = 124\nvalue = [44, 80]\nclass = >50", fillcolor="#a6d3f3"] ;
829 -> 867 ;
868 [label="race <= 3.0\ngini = 0.408\nsamples = 49\nvalue = [14, 35]\nclass = >50", fillcolor="#88c4ef"] ;
867 -> 868 ;
869 [label="gini = 0.0\nsamples = 3\nvalue = [0, 3]\nclass = >50", fillcolor="#399de5"] ;
868 -> 869 ;
870 [label="native-country <= 24.0\ngini = 0.423\nsamples = 46\nvalue = [14, 32]\nclass = >50", fillcolor="#90c8f0"] ;
868 -> 870 ;
871 [label="gini = 0.0\nsamples = 2\nvalue = [0, 2]\nclass = >50", fillcolor="#399de5"] ;
870 -> 871 ;
872 [label="occupation <= 9.5\ngini = 0.434\nsamples = 44\nvalue = [14, 30]\nclass = >50", fillcolor="#95cbf1"] ;
870 -> 872 ;
873 [label="workclass <= 0.5\ngini = 0.458\nsamples = 31\nvalue = [11, 20]\nclass = >50", fillcolor="#a6d3f3"] ;
872 -> 873 ;
